{"learner":{"attributes":{"scikit_learn":"{\"_estimator_type\": \"regressor\"}"},"feature_names":[],"feature_types":[],"gradient_booster":{"model":{"gbtree_model_param":{"num_parallel_tree":"1","num_trees":"200"},"iteration_indptr":[0,1,2,3,4,5,6,7,8,9,10,11,12,13,14,15,16,17,18,19,20,21,22,23,24,25,26,27,28,29,30,31,32,33,34,35,36,37,38,39,40,41,42,43,44,45,46,47,48,49,50,51,52,53,54,55,56,57,58,59,60,61,62,63,64,65,66,67,68,69,70,71,72,73,74,75,76,77,78,79,80,81,82,83,84,85,86,87,88,89,90,91,92,93,94,95,96,97,98,99,100,101,102,103,104,105,106,107,108,109,110,111,112,113,114,115,116,117,118,119,120,121,122,123,124,125,126,127,128,129,130,131,132,133,134,135,136,137,138,139,140,141,142,143,144,145,146,147,148,149,150,151,152,153,154,155,156,157,158,159,160,161,162,163,164,165,166,167,168,169,170,171,172,173,174,175,176,177,178,179,180,181,182,183,184,185,186,187,188,189,190,191,192,193,194,195,196,197,198,199,200],"tree_info":[0,0,0,0,0,0,0,0,0,0,0,0,0,0,0,0,0,0,0,0,0,0,0,0,0,0,0,0,0,0,0,0,0,0,0,0,0,0,0,0,0,0,0,0,0,0,0,0,0,0,0,0,0,0,0,0,0,0,0,0,0,0,0,0,0,0,0,0,0,0,0,0,0,0,0,0,0,0,0,0,0,0,0,0,0,0,0,0,0,0,0,0,0,0,0,0,0,0,0,0,0,0,0,0,0,0,0,0,0,0,0,0,0,0,0,0,0,0,0,0,0,0,0,0,0,0,0,0,0,0,0,0,0,0,0,0,0,0,0,0,0,0,0,0,0,0,0,0,0,0,0,0,0,0,0,0,0,0,0,0,0,0,0,0,0,0,0,0,0,0,0,0,0,0,0,0,0,0,0,0,0,0,0,0,0,0,0,0,0,0,0,0,0,0,0,0,0,0,0,0],"trees":[{"base_weights":[5.7664823E-7,-1.0414075E0,1.1555463E0,-2.4467592E0,-6.7683375E-1,6.444991E-1,2.0458913E0,-5.7650656E-1,-4.0839887E-1,-2.4871846E-1,-7.68246E-2,6.500619E-2,1.6396278E-1,3.349888E-1,4.8767987E-1],"categories":[],"categories_nodes":[],"categories_segments":[],"categories_sizes":[],"default_left":[0,0,0,0,0,0,0,0,0,0,0,0,0,0,0],"id":0,"left_children":[1,3,5,7,9,11,13,-1,-1,-1,-1,-1,-1,-1,-1],"loss_changes":[3.3586746E3,7.504802E2,6.006575E2,4.7382446E1,1.9312329E2,4.6891846E1,6.609497E1,0E0,0E0,0E0,0E0,0E0,0E0,0E0,0E0],"parents":[2147483647,0,0,1,1,2,2,3,3,4,4,5,5,6,6],"right_children":[2,4,6,8,10,12,14,-1,-1,-1,-1,-1,-1,-1,-1],"split_conditions":[-2.929913E-1,-8.137831E-1,6.834933E-1,-8.745422E-1,-6.618855E-1,-9.769438E-2,1.7033772E0,-5.7650656E-1,-4.0839887E-1,-2.4871846E-1,-7.68246E-2,6.500619E-2,1.6396278E-1,3.349888E-1,4.8767987E-1],"split_indices":[1,1,1,1,1,1,1,0,0,0,0,0,0,0,0],"split_type":[0,0,0,0,0,0,0,0,0,0,0,0,0,0,0],"sum_hessian":[2.789E3,1.467E3,1.322E3,3.01E2,1.166E3,8.41E2,4.81E2,1.42E2,1.59E2,3.96E2,7.7E2,2.99E2,5.42E2,2.5E2,2.31E2],"tree_param":{"num_deleted":"0","num_feature":"2677","num_nodes":"15","size_leaf_vector":"1"}},{"base_weights":[-9.267151E-5,-8.3401895E-1,9.252315E-1,-1.9606686E0,-5.4174626E-1,5.1587087E-1,1.6384192E0,-4.2034456E-1,-1.6491576E-1,-1.991001E-1,-6.1479688E-2,5.2048277E-2,1.3123052E-1,2.5971106E-1,3.852059E-1],"categories":[],"categories_nodes":[],"categories_segments":[],"categories_sizes":[],"default_left":[0,0,0,0,0,0,0,0,0,0,0,0,0,0,0],"id":1,"left_children":[1,3,5,7,9,11,13,-1,-1,-1,-1,-1,-1,-1,-1],"loss_changes":[2.1536812E3,4.8233392E2,3.85406E2,4.6662476E1,1.2378848E2,3.0023453E1,4.4613525E1,0E0,0E0,0E0,0E0,0E0,0E0,0E0,0E0],"parents":[2147483647,0,0,1,1,2,2,3,3,4,4,5,5,6,6],"right_children":[2,4,6,8,10,12,14,-1,-1,-1,-1,-1,-1,-1,-1],"split_conditions":[-2.929913E-1,-8.137831E-1,6.834933E-1,4.285797E0,-6.618855E-1,-9.769438E-2,1.4863807E0,-4.2034456E-1,-1.6491576E-1,-1.991001E-1,-6.1479688E-2,5.2048277E-2,1.3123052E-1,2.5971106E-1,3.852059E-1],"split_indices":[1,1,1,2655,1,1,1,0,0,0,0,0,0,0,0],"split_type":[0,0,0,0,0,0,0,0,0,0,0,0,0,0,0],"sum_hessian":[2.789E3,1.467E3,1.322E3,3.01E2,1.166E3,8.41E2,4.81E2,2.67E2,3.4E1,3.96E2,7.7E2,2.99E2,5.42E2,2.23E2,2.58E2],"tree_param":{"num_deleted":"0","num_feature":"2677","num_nodes":"15","size_leaf_vector":"1"}},{"base_weights":[-8.043918E-5,-8.8200045E-1,5.625059E-1,-1.7020038E0,-6.4263767E-1,2.6663178E-1,1.3120735E0,-3.6061454E-1,-1.1911507E-1,-1.7404906E-1,-9.3571626E-2,1.2019739E-2,1.05032586E-1,2.2532557E-1,3.384771E-1],"categories":[],"categories_nodes":[],"categories_segments":[],"categories_sizes":[],"default_left":[0,0,0,0,0,0,0,0,0,0,0,0,0,0,0],"id":2,"left_children":[1,3,5,7,9,11,13,-1,-1,-1,-1,-1,-1,-1,-1],"loss_changes":[1.384772E3,2.1226068E2,3.7755933E2,2.6323364E1,3.3128357E1,6.527081E1,3.2087402E1,0E0,0E0,0E0,0E0,0E0,0E0,0E0,0E0],"parents":[2147483647,0,0,1,1,2,2,3,3,4,4,5,5,6,6],"right_children":[2,4,6,8,10,12,14,-1,-1,-1,-1,-1,-1,-1,-1],"split_conditions":[-4.8828825E-1,-8.354828E-1,6.834933E-1,2.9839852E-1,-6.8358517E-1,-9.769438E-2,2.2458687E0,-3.6061454E-1,-1.1911507E-1,-1.7404906E-1,-9.3571626E-2,1.2019739E-2,1.05032586E-1,2.2532557E-1,3.384771E-1],"split_indices":[1,1,1,0,1,1,1,0,0,0,0,0,0,0,0],"split_type":[0,0,0,0,0,0,0,0,0,0,0,0,0,0,0],"sum_hessian":[2.789E3,1.086E3,1.703E3,2.44E2,8.42E2,1.222E3,4.81E2,2.23E2,2.1E1,3.64E2,4.78E2,6.8E2,5.42E2,3.26E2,1.55E2],"tree_param":{"num_deleted":"0","num_feature":"2677","num_nodes":"15","size_leaf_vector":"1"}},{"base_weights":[-8.808772E-5,-5.408023E-1,5.9988815E-1,-1.2169478E0,-3.3903393E-1,3.4103596E-1,1.0508294E0,-3.96689E-1,-2.1592999E-1,-1.0416895E-1,-1.5424557E-2,6.986297E-2,-6.6214985E-1,1.705669E-1,2.5854895E-1],"categories":[],"categories_nodes":[],"categories_segments":[],"categories_sizes":[],"default_left":[0,0,0,0,0,0,0,0,0,0,0,0,0,0,0],"id":3,"left_children":[1,3,5,7,9,11,13,-1,-1,-1,-1,-1,-1,-1,-1],"loss_changes":[9.054443E2,1.9985901E2,1.5407166E2,3.3323944E1,5.3863724E1,2.6612404E1,2.1984314E1,0E0,0E0,0E0,0E0,0E0,0E0,0E0,0E0],"parents":[2147483647,0,0,1,1,2,2,3,3,4,4,5,5,6,6],"right_children":[2,4,6,8,10,12,14,-1,-1,-1,-1,-1,-1,-1,-1],"split_conditions":[-2.929913E-1,-8.029333E-1,6.834933E-1,-8.8973194E-1,-5.3168756E-1,5.2801514E1,1.8118756E0,-3.96689E-1,-2.1592999E-1,-1.0416895E-1,-1.5424557E-2,6.986297E-2,-6.6214985E-1,1.705669E-1,2.5854895E-1],"split_indices":[1,1,1,1,1,787,1,0,0,0,0,0,0,0,0],"split_type":[0,0,0,0,0,0,0,0,0,0,0,0,0,0,0],"sum_hessian":[2.789E3,1.467E3,1.322E3,3.36E2,1.131E3,8.41E2,4.81E2,4.9E1,2.87E2,6.67E2,4.64E2,8.4E2,1E0,2.67E2,2.14E2],"tree_param":{"num_deleted":"0","num_feature":"2677","num_nodes":"15","size_leaf_vector":"1"}},{"base_weights":[-3.9090394E-4,-4.4817862E-1,4.6406657E-1,-1.1123602E0,-3.0954424E-1,2.9627034E-1,9.3578166E-1,-2.2786577E-1,2.885755E-1,-7.413022E-2,8.1339575E-2,2.72177E-2,8.810791E-2,1.6163309E-1,2.6391956E-1],"categories":[],"categories_nodes":[],"categories_segments":[],"categories_sizes":[],"default_left":[0,0,0,0,0,0,0,0,0,0,0,0,0,0,0],"id":4,"left_children":[1,3,5,7,9,11,13,-1,-1,-1,-1,-1,-1,-1,-1],"loss_changes":[5.804676E2,1.3049911E2,1.0816101E2,1.85271E1,5.1664886E1,2.332666E1,1.6517792E1,0E0,0E0,0E0,0E0,0E0,0E0,0E0,0E0],"parents":[2147483647,0,0,1,1,2,2,3,3,4,4,5,5,6,6],"right_children":[2,4,6,8,10,12,14,-1,-1,-1,-1,-1,-1,-1,-1],"split_conditions":[-3.3639064E-1,-8.354828E-1,1.0523876E0,1.993561E1,4.285797E0,1.0803911E-2,1.5651933E0,-2.2786577E-1,2.885755E-1,-7.413022E-2,8.1339575E-2,2.72177E-2,8.810791E-2,1.6163309E-1,2.6391956E-1],"split_indices":[1,1,1,524,2655,1,0,0,0,0,0,0,0,0,0],"split_type":[0,0,0,0,0,0,0,0,0,0,0,0,0,0,0],"sum_hessian":[2.789E3,1.42E3,1.369E3,2.44E2,1.176E3,1.011E3,3.58E2,2.42E2,2E0,1.084E3,9.2E1,4.8E2,5.31E2,2.71E2,8.7E1],"tree_param":{"num_deleted":"0","num_feature":"2677","num_nodes":"15","size_leaf_vector":"1"}},{"base_weights":[-9.417312E-5,-5.0502014E-1,2.835912E-1,-1.0061197E0,-3.9284712E-1,1.3686767E-1,6.805567E-1,-2.2471443E-1,-9.311059E-3,-9.169119E-2,5.334589E-2,2.8321324E-2,-6.047457E-1,1.2431701E-1,2.312506E-1],"categories":[],"categories_nodes":[],"categories_segments":[],"categories_sizes":[],"default_left":[0,0,0,0,0,0,0,0,0,0,0,0,0,0,0],"id":5,"left_children":[1,3,5,7,9,11,13,-1,-1,-1,-1,-1,-1,-1,-1],"loss_changes":[3.9978317E2,5.603946E1,1.0398921E2,2.0572357E1,3.5693542E1,1.998931E1,1.2802612E1,0E0,0E0,0E0,0E0,0E0,0E0,0E0,0E0],"parents":[2147483647,0,0,1,1,2,2,3,3,4,4,5,5,6,6],"right_children":[2,4,6,8,10,12,14,-1,-1,-1,-1,-1,-1,-1,-1],"split_conditions":[-5.3168756E-1,-8.615224E-1,6.834933E-1,4.285797E0,4.285797E0,5.2801514E1,3.4393501E0,-2.2471443E-1,-9.311059E-3,-9.169119E-2,5.334589E-2,2.8321324E-2,-6.047457E-1,1.2431701E-1,2.312506E-1],"split_indices":[1,1,1,2655,2655,787,1,0,0,0,0,0,0,0,0],"split_type":[0,0,0,0,0,0,0,0,0,0,0,0,0,0,0],"sum_hessian":[2.789E3,1.003E3,1.786E3,1.82E2,8.21E2,1.305E3,4.81E2,1.62E2,2E1,7.47E2,7.4E1,1.304E3,1E0,4.3E2,5.1E1],"tree_param":{"num_deleted":"0","num_feature":"2677","num_nodes":"15","size_leaf_vector":"1"}},{"base_weights":[-2.524058E-4,-1.7378639E-1,2.3016156E-1,-1.15333915E-1,-6.5568864E-1,2.962478E-1,-2.0619275E-2,-1.7446753E-2,-2.5181785E-1,-1.804433E-1,-5.8457345E-2,4.2392604E-2,1.1393906E-1,-1.0074715E-3,-3.9160988E-1],"categories":[],"categories_nodes":[],"categories_segments":[],"categories_sizes":[],"default_left":[0,0,0,0,0,0,0,0,0,0,0,0,0,0,0],"id":6,"left_children":[1,3,5,7,9,11,13,-1,-1,-1,-1,-1,-1,-1,-1],"loss_changes":[1.1159719E2,4.4768433E1,1.9877327E1,4.5560684E1,1.5145546E1,2.1751282E1,7.567544E0,0E0,0E0,0E0,0E0,0E0,0E0,0E0,0E0],"parents":[2147483647,0,0,1,1,2,2,3,3,4,4,5,5,6,6],"right_children":[2,4,6,8,10,12,14,-1,-1,-1,-1,-1,-1,-1,-1],"split_conditions":[-5.6322175E-3,2.3716457E0,2.3716457E0,8.087321E0,-3.6033475E-1,1.2104907E0,5.2801514E1,-1.7446753E-2,-2.5181785E-1,-1.804433E-1,-5.8457345E-2,4.2392604E-2,1.1393906E-1,-1.0074715E-3,-3.9160988E-1],"split_indices":[0,2654,2654,2653,0,0,568,0,0,0,0,0,0,0,0],"split_type":[0,0,0,0,0,0,0,0,0,0,0,0,0,0,0],"sum_hessian":[2.789E3,1.591E3,1.198E3,1.42E3,1.71E2,9.48E2,2.5E2,1.387E3,3.3E1,1.01E2,7E1,7.26E2,2.22E2,2.49E2,1E0],"tree_param":{"num_deleted":"0","num_feature":"2677","num_nodes":"15","size_leaf_vector":"1"}},{"base_weights":[-4.689825E-4,-1.3934857E-1,1.8393198E-1,-1.8764119E-1,3.4023207E-1,2.3716281E-1,-1.8060023E-2,-3.3524435E-2,-2.029356E-1,7.599883E-2,-5.425264E-1,2.5537897E-2,7.716104E-2,2.096674E-4,-3.1960678E-1],"categories":[],"categories_nodes":[],"categories_segments":[],"categories_sizes":[],"default_left":[0,0,0,0,0,0,0,0,0,0,0,0,0,0,0],"id":7,"left_children":[1,3,5,7,9,11,13,-1,-1,-1,-1,-1,-1,-1,-1],"loss_changes":[7.147621E1,3.693489E1,1.2896179E1,2.3787117E1,1.875345E1,1.5393219E1,7.5795436E0,0E0,0E0,0E0,0E0,0E0,0E0,0E0,0E0],"parents":[2147483647,0,0,1,1,2,2,3,3,4,4,5,5,6,6],"right_children":[2,4,6,8,10,12,14,-1,-1,-1,-1,-1,-1,-1,-1],"split_conditions":[-5.6322175E-3,4.165175E0,2.3716457E0,8.087321E0,5.2801514E1,7.5444466E-1,3.0474033E1,-3.3524435E-2,-2.029356E-1,7.599883E-2,-5.425264E-1,2.5537897E-2,7.716104E-2,2.096674E-4,-3.1960678E-1],"split_indices":[0,2649,2654,2653,787,0,48,0,0,0,0,0,0,0,0],"split_type":[0,0,0,0,0,0,0,0,0,0,0,0,0,0,0],"sum_hessian":[2.789E3,1.591E3,1.198E3,1.446E3,1.45E2,9.48E2,2.5E2,1.413E3,3.3E1,1.44E2,1E0,5.47E2,4.01E2,2.48E2,2E0],"tree_param":{"num_deleted":"0","num_feature":"2677","num_nodes":"15","size_leaf_vector":"1"}},{"base_weights":[-7.0521E-4,-3.956737E-1,1.778735E-1,-4.6490076E-1,2.4002066E-1,8.511672E-3,3.7424758E-1,-1.3139454E-1,-4.64275E-2,7.727408E-2,-2.4703713E-1,2.609182E-3,-4.670821E-1,7.6032184E-2,-4.8827383E-1],"categories":[],"categories_nodes":[],"categories_segments":[],"categories_sizes":[],"default_left":[0,0,0,0,0,0,0,0,0,0,0,0,0,0,0],"id":8,"left_children":[1,3,5,7,9,11,13,-1,-1,-1,-1,-1,-1,-1,-1],"loss_changes":[1.9685736E2,3.8353897E1,6.3919205E1,3.489801E1,1.90443E1,1.1009088E1,1.5746422E1,0E0,0E0,0E0,0E0,0E0,0E0,0E0,0E0],"parents":[2147483647,0,0,1,1,2,2,3,3,4,4,5,5,6,6],"right_children":[2,4,6,8,10,12,14,-1,-1,-1,-1,-1,-1,-1,-1],"split_conditions":[-5.750869E-1,4.285797E0,1.0803911E-2,-3.6033475E-1,3.807157E0,5.2801514E1,5.2801514E1,-1.3139454E-1,-4.64275E-2,7.727408E-2,-2.4703713E-1,2.609182E-3,-4.670821E-1,7.6032184E-2,-4.8827383E-1],"split_indices":[1,2655,1,0,2669,1134,787,0,0,0,0,0,0,0,0],"split_type":[0,0,0,0,0,0,0,0,0,0,0,0,0,0,0],"sum_hessian":[2.789E3,8.68E2,1.921E3,7.83E2,8.5E1,1.032E3,8.89E2,4.28E2,3.55E2,7.8E1,7E0,1.031E3,1E0,8.88E2,1E0],"tree_param":{"num_deleted":"0","num_feature":"2677","num_nodes":"15","size_leaf_vector":"1"}},{"base_weights":[-1.0031573E-3,-2.3273757E-1,2.0162895E-1,-3.9861986E-1,-8.683693E-2,1.2603076E-1,4.667571E-1,-8.1875816E-2,3.8224068E-1,-1.5777735E-2,-5.5949795E-1,2.5953308E-2,-4.2037383E-1,9.606572E-2,-2.345295E-1],"categories":[],"categories_nodes":[],"categories_segments":[],"categories_sizes":[],"default_left":[0,0,0,0,0,0,0,0,0,0,0,0,0,0,0],"id":9,"left_children":[1,3,5,7,9,11,13,-1,-1,-1,-1,-1,-1,-1,-1],"loss_changes":[1.3105649E2,3.147683E1,2.9785515E1,1.5917221E1,1.4731515E1,9.927364E0,7.9054947E0,0E0,0E0,0E0,0E0,0E0,0E0,0E0,0E0],"parents":[2147483647,0,0,1,1,2,2,3,3,4,4,5,5,6,6],"right_children":[2,4,6,8,10,12,14,-1,-1,-1,-1,-1,-1,-1,-1],"split_conditions":[-3.7978995E-1,-6.8358517E-1,1.1174865E0,3.0474033E1,5.2801514E1,5.2801514E1,1.7575235E1,-8.1875816E-2,3.8224068E-1,-1.5777735E-2,-5.5949795E-1,2.5953308E-2,-4.2037383E-1,9.606572E-2,-2.345295E-1],"split_indices":[1,1,1,2162,1504,1134,1740,0,0,0,0,0,0,0,0],"split_type":[0,0,0,0,0,0,0,0,0,0,0,0,0,0,0],"sum_hessian":[2.789E3,1.301E3,1.488E3,6.08E2,6.93E2,1.159E3,3.29E2,6.06E2,2E0,6.92E2,1E0,1.158E3,1E0,3.27E2,2E0],"tree_param":{"num_deleted":"0","num_feature":"2677","num_nodes":"15","size_leaf_vector":"1"}},{"base_weights":[-1.0919595E-3,-1.6820723E-1,1.8433988E-1,-5.242373E-1,-1.17412746E-1,1.2945381E-1,4.0931794E-1,-1.09418035E-1,3.6349878E-1,-3.0135427E-2,5.572191E-2,2.6746003E-2,-4.4204178E-1,8.562788E-2,-1.7951727E-1],"categories":[],"categories_nodes":[],"categories_segments":[],"categories_sizes":[],"default_left":[0,0,0,0,0,0,0,0,0,0,0,0,0,0,0],"id":10,"left_children":[1,3,5,7,9,11,13,-1,-1,-1,-1,-1,-1,-1,-1],"loss_changes":[8.648891E1,2.6486294E1,1.6283623E1,1.0787636E1,1.6983019E1,1.0950741E1,6.755142E0,0E0,0E0,0E0,0E0,0E0,0E0,0E0,0E0],"parents":[2147483647,0,0,1,1,2,2,3,3,4,4,5,5,6,6],"right_children":[2,4,6,8,10,12,14,-1,-1,-1,-1,-1,-1,-1,-1],"split_conditions":[-2.929913E-1,-8.615224E-1,1.4863807E0,5.2801514E1,4.285797E0,5.2801514E1,2.6386549E1,-1.09418035E-1,3.6349878E-1,-3.0135427E-2,5.572191E-2,2.6746003E-2,-4.4204178E-1,8.562788E-2,-1.7951727E-1],"split_indices":[1,1,1,2642,2655,787,101,0,0,0,0,0,0,0,0],"split_type":[0,0,0,0,0,0,0,0,0,0,0,0,0,0,0],"sum_hessian":[2.789E3,1.467E3,1.322E3,1.82E2,1.285E3,1.064E3,2.58E2,1.81E2,1E0,1.186E3,9.9E1,1.063E3,1E0,2.55E2,3E0],"tree_param":{"num_deleted":"0","num_feature":"2677","num_nodes":"15","size_leaf_vector":"1"}},{"base_weights":[-9.559057E-4,2.4251493E-3,-4.7129342E-1,-1.00328304E-1,7.2038844E-2,-1.9244328E-2,-4.7203255E-1,1.5218054E-2,-4.3875256E-1],"categories":[],"categories_nodes":[],"categories_segments":[],"categories_sizes":[],"default_left":[0,0,0,0,0,0,0,0,0],"id":11,"left_children":[1,3,-1,5,7,-1,-1,-1,-1],"loss_changes":[2.2225588E1,1.994277E1,0E0,1.022261E1,1.542363E1,0E0,0E0,0E0,0E0],"parents":[2147483647,0,0,1,1,3,3,4,4],"right_children":[2,4,-1,6,8,-1,-1,-1,-1],"split_conditions":[3.0474033E1,-3.6033475E-1,-4.7129342E-1,5.2801514E1,3.7329613E1,-1.9244328E-2,-4.7203255E-1,1.5218054E-2,-4.3875256E-1],"split_indices":[1028,0,0,2511,2613,0,0,0,0],"split_type":[0,0,0,0,0,0,0,0,0],"sum_hessian":[2.789E3,2.786E3,3E0,1.125E3,1.661E3,1.124E3,1E0,1.659E3,2E0],"tree_param":{"num_deleted":"0","num_feature":"2677","num_nodes":"9","size_leaf_vector":"1"}},{"base_weights":[-1.2616469E-3,-2.4967498E-1,8.1582956E-2,-3.1457686E-1,2.936379E-1,1.0824519E-2,2.3151988E-1,-8.008291E-2,-4.610022E-3,9.115841E-2,-2.242754E-1,8.382931E-3,-6.999438E-2,4.7873717E-2,-3.1918234E-1],"categories":[],"categories_nodes":[],"categories_segments":[],"categories_sizes":[],"default_left":[0,0,0,0,0,0,0,0,0,0,0,0,0,0,0],"id":12,"left_children":[1,3,5,7,9,11,13,-1,-1,-1,-1,-1,-1,-1,-1],"loss_changes":[5.7437744E1,2.470528E1,2.2202766E1,1.5605728E1,1.7719904E1,1.5976761E1,1.0006123E1,0E0,0E0,0E0,0E0,0E0,0E0,0E0,0E0],"parents":[2147483647,0,0,1,1,2,2,3,3,4,4,5,5,6,6],"right_children":[2,4,6,8,10,12,14,-1,-1,-1,-1,-1,-1,-1,-1],"split_conditions":[-6.618855E-1,4.285797E0,3.5799846E-1,4.503957E-2,-5.6304008E-2,3.8185084E0,2.6386549E1,-8.008291E-2,-4.610022E-3,9.115841E-2,-2.242754E-1,8.382931E-3,-6.999438E-2,4.7873717E-2,-3.1918234E-1],"split_indices":[1,2655,1,0,0,2652,140,0,0,0,0,0,0,0,0],"split_type":[0,0,0,0,0,0,0,0,0,0,0,0,0,0,0],"sum_hessian":[2.789E3,6.97E2,2.092E3,6.23E2,7.4E1,1.422E3,6.7E2,4.81E2,1.42E2,6.7E1,7E0,1.31E3,1.12E2,6.68E2,2E0],"tree_param":{"num_deleted":"0","num_feature":"2677","num_nodes":"15","size_leaf_vector":"1"}},{"base_weights":[-1.2067613E-3,-8.94528E-2,1.5107055E-1,-9.3885094E-2,3.775099E-1,1.5695152E-1,-1.0788605E0,-4.761188E-2,-6.586652E-3,2.4913501E-2,8.8196434E-2,-1.3234424E-2,-5.129614E-1],"categories":[],"categories_nodes":[],"categories_segments":[],"categories_sizes":[],"default_left":[0,0,0,0,0,0,0,0,0,0,0,0,0],"id":13,"left_children":[1,3,5,7,-1,9,11,-1,-1,-1,-1,-1,-1],"loss_changes":[3.750517E1,1.5660804E1,7.576107E0,1.5493643E1,0E0,9.32708E0,7.3542852E0,0E0,0E0,0E0,0E0,0E0,0E0],"parents":[2147483647,0,0,1,1,2,2,3,3,5,5,6,6],"right_children":[2,4,6,8,-1,10,12,-1,-1,-1,-1,-1,-1],"split_conditions":[-9.769438E-2,2.6386549E1,1.7575235E1,-7.269845E-1,3.775099E-1,2.5713637E0,1.0078036E0,-4.761188E-2,-6.586652E-3,2.4913501E-2,8.8196434E-2,-1.3234424E-2,-5.129614E-1],"split_indices":[1,749,2046,1,0,1,0,0,0,0,0,0,0],"split_type":[0,0,0,0,0,0,0,0,0,0,0,0,0],"sum_hessian":[2.789E3,1.766E3,1.023E3,1.763E3,3E0,1.019E3,4E0,5.23E2,1.24E3,9.16E2,1.03E2,3E0,1E0],"tree_param":{"num_deleted":"0","num_feature":"2677","num_nodes":"13","size_leaf_vector":"1"}},{"base_weights":[-9.979183E-4,-1.2675461E-1,6.965721E-2,-9.216971E-2,-6.090513E-1,6.505893E-2,1.0840664E0,-2.6569879E-2,6.352517E-2,-9.4755225E-2,-3.401741E-1,1.23857325E-2,2.8788328E-1,5.2952766E-2,2.3265724E-1],"categories":[],"categories_nodes":[],"categories_segments":[],"categories_sizes":[],"default_left":[0,0,0,0,0,0,0,0,0,0,0,0,0,0,0],"id":14,"left_children":[1,3,5,7,9,11,13,-1,-1,-1,-1,-1,-1,-1,-1],"loss_changes":[2.4798967E1,1.6690765E1,8.264993E0,1.5678991E1,9.089804E0,7.568614E0,2.1124268E-1,0E0,0E0,0E0,0E0,0E0,0E0,0E0,0E0],"parents":[2147483647,0,0,1,1,2,2,3,3,4,4,5,5,6,6],"right_children":[2,4,6,8,10,12,14,-1,-1,-1,-1,-1,-1,-1,-1],"split_conditions":[-5.3168756E-1,3.807157E0,1.8644705E1,4.285797E0,6.531011E-1,3.0474033E1,-6.297493E-2,-2.6569879E-2,6.352517E-2,-9.4755225E-2,-3.401741E-1,1.23857325E-2,2.8788328E-1,5.2952766E-2,2.3265724E-1],"split_indices":[1,2669,2407,2655,0,474,1,0,0,0,0,0,0,0,0],"split_type":[0,0,0,0,0,0,0,0,0,0,0,0,0,0,0],"sum_hessian":[2.789E3,1.003E3,1.786E3,9.37E2,6.6E1,1.779E3,7E0,8.53E2,8.4E1,6E1,6E0,1.776E3,3E0,1E0,6E0],"tree_param":{"num_deleted":"0","num_feature":"2677","num_nodes":"15","size_leaf_vector":"1"}},{"base_weights":[-7.313906E-4,-5.684895E-2,1.1913402E-1,-5.3408835E-2,-4.4309828E-1,1.238173E-1,-4.0443048E-1,-9.898013E-3,-3.7951085E-1,2.356821E-2,2.833208E-1],"categories":[],"categories_nodes":[],"categories_segments":[],"categories_sizes":[],"default_left":[0,0,0,0,0,0,0,0,0,0,0],"id":15,"left_children":[1,3,5,7,-1,9,-1,-1,-1,-1,-1],"loss_changes":[1.8773859E1,1.3998451E1,9.175522E0,1.3629753E1,0E0,6.701503E0,0E0,0E0,0E0,0E0,0E0],"parents":[2147483647,0,0,1,1,2,2,3,3,5,5],"right_children":[2,4,6,8,-1,10,-1,-1,-1,-1,-1],"split_conditions":[1.0803911E-2,3.0474033E1,5.2801514E1,3.0474033E1,-4.4309828E-1,1.7575235E1,-4.0443048E-1,-9.898013E-3,-3.7951085E-1,2.356821E-2,2.833208E-1],"split_indices":[1,1625,787,1028,0,2520,0,0,0,0,0],"split_type":[0,0,0,0,0,0,0,0,0,0,0],"sum_hessian":[2.789E3,1.9E3,8.89E2,1.898E3,2E0,8.88E2,1E0,1.895E3,3E0,8.85E2,3E0],"tree_param":{"num_deleted":"0","num_feature":"2677","num_nodes":"11","size_leaf_vector":"1"}},{"base_weights":[-9.1916294E-4,2.2567243E-3,-1.4749069E0,4.0484453E-3,-4.9858943E-1,-1.7265034E0,-2.1692468E-2,2.680222E-4,3.0181453E-1,-3.9621535E-1,-7.0821E-2],"categories":[],"categories_nodes":[],"categories_segments":[],"categories_sizes":[],"default_left":[0,0,0,0,0,0,0,0,0,0,0],"id":16,"left_children":[1,3,5,7,-1,9,-1,-1,-1,-1,-1],"loss_changes":[1.3063928E1,1.2461017E1,1.8754959E0,1.1345862E1,0E0,1.045371E0,0E0,0E0,0E0,0E0,0E0],"parents":[2147483647,0,0,1,1,2,2,3,3,5,5],"right_children":[2,4,6,8,-1,10,-1,-1,-1,-1,-1],"split_conditions":[2.359661E1,5.2801514E1,1.5212385E1,2.6386549E1,-4.9858943E-1,1.7015438E0,-2.1692468E-2,2.680222E-4,3.0181453E-1,-3.9621535E-1,-7.0821E-2],"split_indices":[923,1504,1498,749,0,2651,0,0,0,0,0],"split_type":[0,0,0,0,0,0,0,0,0,0,0],"sum_hessian":[2.789E3,2.784E3,5E0,2.783E3,1E0,4E0,1E0,2.779E3,4E0,3E0,1E0],"tree_param":{"num_deleted":"0","num_feature":"2677","num_nodes":"11","size_leaf_vector":"1"}},{"base_weights":[-9.817281E-4,-4.399459E-1,1.1639056E-2,-4.908724E-1,3.4813958E-1,1.413786E-2,-3.3684212E-1,-1.0781544E-1,3.1726906E-1,3.2586772E-3,-3.872593E-1],"categories":[],"categories_nodes":[],"categories_segments":[],"categories_sizes":[],"default_left":[0,0,0,0,0,0,0,0,0,0,0],"id":17,"left_children":[1,3,5,7,-1,9,-1,-1,-1,-1,-1],"loss_changes":[1.5461921E1,9.516562E0,1.1520411E1,8.565311E0,0E0,1.1424963E1,0E0,0E0,0E0,0E0,0E0],"parents":[2147483647,0,0,1,1,2,2,3,3,5,5],"right_children":[2,4,6,8,-1,10,-1,-1,-1,-1,-1],"split_conditions":[-8.86477E-1,3.7329613E1,3.0474033E1,3.7329613E1,3.4813958E-1,3.7329613E1,-3.3684212E-1,-1.0781544E-1,3.1726906E-1,3.2586772E-3,-3.872593E-1],"split_indices":[1,999,2145,621,0,835,0,0,0,0,0],"split_type":[0,0,0,0,0,0,0,0,0,0,0],"sum_hessian":[2.789E3,7.7E1,2.712E3,7.6E1,1E0,2.709E3,3E0,7.5E1,1E0,2.707E3,2E0],"tree_param":{"num_deleted":"0","num_feature":"2677","num_nodes":"11","size_leaf_vector":"1"}},{"base_weights":[-8.430813E-4,-1.2141807E-1,3.9368186E-2,-1.3031764E-1,2.910474E-1,4.1533545E-2,-4.4905636E-1,-2.7251303E-2,3.9912587E-1,1.1869884E-2,-4.5122717E-2],"categories":[],"categories_nodes":[],"categories_segments":[],"categories_sizes":[],"default_left":[0,0,0,0,0,0,0,0,0,0,0],"id":18,"left_children":[1,3,5,7,-1,9,-1,-1,-1,-1,-1],"loss_changes":[1.3532021E1,9.983668E0,1.0447509E1,9.046796E0,0E0,9.970179E0,0E0,0E0,0E0,0E0,0E0],"parents":[2147483647,0,0,1,1,2,2,3,3,5,5],"right_children":[2,4,6,8,-1,10,-1,-1,-1,-1,-1],"split_conditions":[-6.618855E-1,1.993561E1,5.2801514E1,5.2801514E1,2.910474E-1,3.8185084E0,-4.4905636E-1,-2.7251303E-2,3.9912587E-1,1.1869884E-2,-4.5122717E-2],"split_indices":[1,524,1504,890,0,2652,0,0,0,0,0],"split_type":[0,0,0,0,0,0,0,0,0,0,0],"sum_hessian":[2.789E3,6.97E2,2.092E3,6.94E2,3E0,2.091E3,1E0,6.93E2,1E0,1.961E3,1.3E2],"tree_param":{"num_deleted":"0","num_feature":"2677","num_nodes":"11","size_leaf_vector":"1"}},{"base_weights":[-6.093353E-4,1.3283483E-3,-3.6023206E-1,3.2451446E-3,-3.5583586E-1,2.1443306E-4,3.0285683E-1],"categories":[],"categories_nodes":[],"categories_segments":[],"categories_sizes":[],"default_left":[0,0,0,0,0,0,0],"id":19,"left_children":[1,3,-1,5,-1,-1,-1],"loss_changes":[9.736417E0,9.520856E0,0E0,9.146087E0,0E0,0E0,0E0],"parents":[2147483647,0,0,1,1,3,3],"right_children":[2,4,-1,6,-1,-1,-1],"split_conditions":[3.7329613E1,3.7329613E1,-3.6023206E-1,3.0474033E1,-3.5583586E-1,2.1443306E-4,3.0285683E-1],"split_indices":[2613,467,0,509,0,0,0],"split_type":[0,0,0,0,0,0,0],"sum_hessian":[2.789E3,2.787E3,2E0,2.785E3,2E0,2.782E3,3E0],"tree_param":{"num_deleted":"0","num_feature":"2677","num_nodes":"7","size_leaf_vector":"1"}},{"base_weights":[-6.34807E-4,1.7177813E-3,-1.639642E0,4.0117134E-3,-1.5952885E0,-3.8349184E-1,-8.061905E-2,-4.334659E-2,3.9070514E-3,-3.882204E-1,-5.57848E-2],"categories":[],"categories_nodes":[],"categories_segments":[],"categories_sizes":[],"default_left":[0,0,0,0,0,0,0,0,0,0,0],"id":20,"left_children":[1,3,5,7,9,-1,-1,-1,-1,-1,-1],"loss_changes":[1.0760802E1,1.0216364E1,6.0121727E-1,9.544276E0,1.2794456E0,0E0,0E0,0E0,0E0,0E0,0E0],"parents":[2147483647,0,0,1,1,2,2,3,3,4,4],"right_children":[2,4,6,8,10,-1,-1,-1,-1,-1,-1],"split_conditions":[3.0474033E1,3.0474033E1,-3.7978995E-1,-8.615224E-1,3.0474033E1,-3.8349184E-1,-8.061905E-2,-4.334659E-2,3.9070514E-3,-3.882204E-1,-5.57848E-2],"split_indices":[1625,1028,1,1,1771,0,0,0,0,0,0],"split_type":[0,0,0,0,0,0,0,0,0,0,0],"sum_hessian":[2.789E3,2.786E3,3E0,2.783E3,3E0,2E0,1E0,1.82E2,2.601E3,2E0,1E0],"tree_param":{"num_deleted":"0","num_feature":"2677","num_nodes":"11","size_leaf_vector":"1"}},{"base_weights":[-8.4679236E-4,1.5459253E-3,-1.3338997E0,3.0536638E-3,-4.197506E-1,-3.6198208E-1,-8.265114E-2,1.1688344E-3,-2.2104287E-1],"categories":[],"categories_nodes":[],"categories_segments":[],"categories_sizes":[],"default_left":[0,0,0,0,0,0,0,0,0],"id":21,"left_children":[1,3,5,7,-1,-1,-1,-1,-1],"loss_changes":[8.901099E0,8.828839E0,1.4432268E0,8.619438E0,0E0,0E0,0E0,0E0,0E0],"parents":[2147483647,0,0,1,1,2,2,3,3],"right_children":[2,4,6,8,-1,-1,-1,-1,-1],"split_conditions":[2.6386549E1,5.2801514E1,-4.4488892E-1,2.153679E1,-4.197506E-1,-3.6198208E-1,-8.265114E-2,1.1688344E-3,-2.2104287E-1],"split_indices":[1628,1200,1,1878,0,0,0,0,0],"split_type":[0,0,0,0,0,0,0,0,0],"sum_hessian":[2.789E3,2.785E3,4E0,2.784E3,1E0,2E0,2E0,2.778E3,6E0],"tree_param":{"num_deleted":"0","num_feature":"2677","num_nodes":"9","size_leaf_vector":"1"}},{"base_weights":[-1.0664259E-3,-2.803132E-2,1.1159778E-1,-3.4066223E-2,8.742448E-1,1.1924063E-1,-2.587342E-1,-6.2901736E-3,-3.9440414E-1,2.797167E-1,1.2532231E-1,2.5078624E-2,-3.1784946E-1],"categories":[],"categories_nodes":[],"categories_segments":[],"categories_sizes":[],"default_left":[0,0,0,0,0,0,0,0,0,0,0,0,0],"id":22,"left_children":[1,3,5,7,9,11,-1,-1,-1,-1,-1,-1,-1],"loss_changes":[8.479088E0,1.2292255E1,5.9432535E0,1.1281137E1,1.0712872E0,5.8439336E0,0E0,0E0,0E0,0E0,0E0,0E0,0E0],"parents":[2147483647,0,0,1,1,2,2,3,3,4,4,5,5],"right_children":[2,4,6,8,10,12,-1,-1,-1,-1,-1,-1,-1],"split_conditions":[5.7499504E-1,1.2407435E1,1.993561E1,1.993561E1,-5.533872E-1,5.2801514E1,-2.587342E-1,-6.2901736E-3,-3.9440414E-1,2.797167E-1,1.2532231E-1,2.5078624E-2,-3.1784946E-1],"split_indices":[1,1620,1577,1177,1,1186,0,0,0,0,0,0,0],"split_type":[0,0,0,0,0,0,0,0,0,0,0,0,0],"sum_hessian":[2.789E3,2.251E3,5.38E2,2.237E3,1.4E1,5.36E2,2E0,2.235E3,2E0,3E0,1.1E1,5.35E2,1E0],"tree_param":{"num_deleted":"0","num_feature":"2677","num_nodes":"13","size_leaf_vector":"1"}},{"base_weights":[-1.048892E-3,1.5214277E-3,-1.1939307E0,3.5816482E-3,-1.4317424E0,-1.3908453E0,-2.0935822E-2,1.0736793E-3,-3.3066648E-1,-3.316768E-1,-7.5181775E-2,-6.123972E-2,-3.1709146E-1],"categories":[],"categories_nodes":[],"categories_segments":[],"categories_sizes":[],"default_left":[0,0,0,0,0,0,0,0,0,0,0,0,0],"id":23,"left_children":[1,3,5,7,9,11,-1,-1,-1,-1,-1,-1,-1],"loss_changes":[8.556201E0,8.228787E0,1.141345E0,8.244955E0,3.3378124E-1,5.6996155E-1,0E0,0E0,0E0,0E0,0E0,0E0,0E0],"parents":[2147483647,0,0,1,1,2,2,3,3,4,4,5,5],"right_children":[2,4,6,8,10,12,-1,-1,-1,-1,-1,-1,-1],"split_conditions":[2.359661E1,3.0474033E1,1.5212385E1,3.7329613E1,-3.7978995E-1,-8.354828E-1,-2.0935822E-2,1.0736793E-3,-3.3066648E-1,-3.316768E-1,-7.5181775E-2,-6.123972E-2,-3.1709146E-1],"split_indices":[923,1625,1498,835,1,1,0,0,0,0,0,0,0],"split_type":[0,0,0,0,0,0,0,0,0,0,0,0,0],"sum_hessian":[2.789E3,2.784E3,5E0,2.781E3,3E0,4E0,1E0,2.779E3,2E0,2E0,1E0,1E0,3E0],"tree_param":{"num_deleted":"0","num_feature":"2677","num_nodes":"13","size_leaf_vector":"1"}},{"base_weights":[-1.2463399E-3,1.0924014E-3,-2.6082873E-1,2.5439898E-3,-4.0415812E-1,5.2460593E-5,2.542219E-1],"categories":[],"categories_nodes":[],"categories_segments":[],"categories_sizes":[],"default_left":[0,0,0,0,0,0,0],"id":24,"left_children":[1,3,-1,5,-1,-1,-1],"loss_changes":[8.502945E0,8.181889E0,0E0,8.060763E0,0E0,0E0,0E0],"parents":[2147483647,0,0,1,1,3,3],"right_children":[2,4,-1,6,-1,-1,-1],"split_conditions":[2.6386549E1,5.2801514E1,-2.6082873E-1,2.6386549E1,-4.0415812E-1,5.2460593E-5,2.542219E-1],"split_indices":[1992,1504,0,749,0,0,0],"split_type":[0,0,0,0,0,0,0],"sum_hessian":[2.789E3,2.785E3,4E0,2.784E3,1E0,2.78E3,4E0],"tree_param":{"num_deleted":"0","num_feature":"2677","num_nodes":"7","size_leaf_vector":"1"}},{"base_weights":[-1.145101E-3,-2.8982533E-3,3.256999E-1,-4.2093226E-1,4.578595E-3,-9.930548E-2,3.207634E-1,1.207572E-3,-3.9923468E-1],"categories":[],"categories_nodes":[],"categories_segments":[],"categories_sizes":[],"default_left":[0,0,0,0,0,0,0,0,0],"id":25,"left_children":[1,3,-1,5,7,-1,-1,-1,-1],"loss_changes":[7.975791E0,8.716036E0,0E0,8.296337E0,8.011828E0,0E0,0E0,0E0,0E0],"parents":[2147483647,0,0,1,1,3,3,4,4],"right_children":[2,4,-1,6,8,-1,-1,-1,-1],"split_conditions":[3.7329613E1,-8.8973194E-1,3.256999E-1,3.7329613E1,5.2801514E1,-9.930548E-2,3.207634E-1,1.207572E-3,-3.9923468E-1],"split_indices":[950,1,0,999,2511,0,0,0,0],"split_type":[0,0,0,0,0,0,0,0,0],"sum_hessian":[2.789E3,2.787E3,2E0,4.8E1,2.739E3,4.7E1,1E0,2.738E3,1E0],"tree_param":{"num_deleted":"0","num_feature":"2677","num_nodes":"9","size_leaf_vector":"1"}},{"base_weights":[-8.6241896E-4,8.9748413E-4,-3.2722232E-1,2.3358532E-3,-4.0078375E-1,8.6934754E-4,-2.795647E-1],"categories":[],"categories_nodes":[],"categories_segments":[],"categories_sizes":[],"default_left":[0,0,0,0,0,0,0],"id":26,"left_children":[1,3,-1,5,-1,-1,-1],"loss_changes":[8.030754E0,8.04434E0,0E0,7.853038E0,0E0,0E0,0E0],"parents":[2147483647,0,0,1,1,3,3],"right_children":[2,4,-1,6,-1,-1,-1],"split_conditions":[3.7329613E1,5.2801514E1,-3.2722232E-1,3.0474033E1,-4.0078375E-1,8.6934754E-4,-2.795647E-1],"split_indices":[28,820,0,2420,0,0,0],"split_type":[0,0,0,0,0,0,0],"sum_hessian":[2.789E3,2.787E3,2E0,2.786E3,1E0,2.783E3,3E0],"tree_param":{"num_deleted":"0","num_feature":"2677","num_nodes":"7","size_leaf_vector":"1"}},{"base_weights":[-1.0511631E-3,-2.7876059E-3,3.2260665E-1,-1.3767923E-3,-3.934725E-1,1.2256134E-4,-2.771587E-1],"categories":[],"categories_nodes":[],"categories_segments":[],"categories_sizes":[],"default_left":[0,0,0,0,0,0,0],"id":27,"left_children":[1,3,-1,5,-1,-1,-1],"loss_changes":[7.824211E0,7.724648E0,0E0,7.677457E0,0E0,0E0,0E0],"parents":[2147483647,0,0,1,1,3,3],"right_children":[2,4,-1,6,-1,-1,-1],"split_conditions":[3.7329613E1,5.2801514E1,3.2260665E-1,3.0474033E1,-3.934725E-1,1.2256134E-4,-2.771587E-1],"split_indices":[621,485,0,1028,0,0,0],"split_type":[0,0,0,0,0,0,0],"sum_hessian":[2.789E3,2.787E3,2E0,2.786E3,1E0,2.783E3,3E0],"tree_param":{"num_deleted":"0","num_feature":"2677","num_nodes":"7","size_leaf_vector":"1"}},{"base_weights":[-9.652555E-4,-3.80552E-3,9.872124E-1,-5.7808394E-3,2.7399856E-1,-1.6891353E-1,2.80148E-1,-1.5456878E-3,2.695571E-1,-6.510105E-2,1.4426994E-2],"categories":[],"categories_nodes":[],"categories_segments":[],"categories_sizes":[],"default_left":[0,0,0,0,0,0,0,0,0,0,0],"id":28,"left_children":[1,3,5,7,-1,9,-1,-1,-1,-1,-1],"loss_changes":[7.83441E0,7.560119E0,4.0613236E0,7.3390675E0,0E0,1.3671891E-1,0E0,0E0,0E0,0E0,0E0],"parents":[2147483647,0,0,1,1,2,2,3,3,5,5],"right_children":[2,4,6,8,-1,10,-1,-1,-1,-1,-1],"split_conditions":[1.993561E1,3.0474033E1,4.285797E0,3.0474033E1,2.7399856E-1,1.9705494E-1,2.80148E-1,-1.5456878E-3,2.695571E-1,-6.510105E-2,1.4426994E-2],"split_indices":[524,558,2655,478,0,0,0,0,0,0,0],"split_type":[0,0,0,0,0,0,0,0,0,0,0],"sum_hessian":[2.789E3,2.782E3,7E0,2.779E3,3E0,2E0,5E0,2.776E3,3E0,1E0,1E0],"tree_param":{"num_deleted":"0","num_feature":"2677","num_nodes":"11","size_leaf_vector":"1"}},{"base_weights":[-4.9629726E-4,8.723289E-4,-3.8175946E-1,2.8076216E-3,-2.6945543E-1,8.3342893E-4,-3.7834644E-1],"categories":[],"categories_nodes":[],"categories_segments":[],"categories_sizes":[],"default_left":[0,0,0,0,0,0,0],"id":29,"left_children":[1,3,-1,5,-1,-1,-1],"loss_changes":[7.2884493E0,7.280462E0,0E0,7.183702E0,0E0,0E0,0E0],"parents":[2147483647,0,0,1,1,3,3],"right_children":[2,4,-1,6,-1,-1,-1],"split_conditions":[5.2801514E1,3.0474033E1,-3.8175946E-1,5.2801514E1,-2.6945543E-1,8.3342893E-4,-3.7834644E-1],"split_indices":[156,2145,0,27,0,0,0],"split_type":[0,0,0,0,0,0,0],"sum_hessian":[2.789E3,2.788E3,1E0,2.785E3,3E0,2.784E3,1E0],"tree_param":{"num_deleted":"0","num_feature":"2677","num_nodes":"7","size_leaf_vector":"1"}},{"base_weights":[-7.658391E-4,9.143202E-4,-3.1238773E-1,2.5763789E-3,-3.085778E-1,7.864898E-4,-3.7740794E-1],"categories":[],"categories_nodes":[],"categories_segments":[],"categories_sizes":[],"default_left":[0,0,0,0,0,0,0],"id":30,"left_children":[1,3,-1,5,-1,-1,-1],"loss_changes":[7.3196507E0,7.157681E0,0E0,7.146412E0,0E0,0E0,0E0],"parents":[2147483647,0,0,1,1,3,3],"right_children":[2,4,-1,6,-1,-1,-1],"split_conditions":[3.7329613E1,3.7329613E1,-3.1238773E-1,5.2801514E1,-3.085778E-1,7.864898E-4,-3.7740794E-1],"split_indices":[2613,467,0,1200,0,0,0],"split_type":[0,0,0,0,0,0,0],"sum_hessian":[2.789E3,2.787E3,2E0,2.785E3,2E0,2.784E3,1E0],"tree_param":{"num_deleted":"0","num_feature":"2677","num_nodes":"7","size_leaf_vector":"1"}},{"base_weights":[-9.696878E-4,-2.8817009E-3,2.662936E-1,-1.5345428E-3,-3.7560645E-1,-9.076654E-4,1.6655396E-1],"categories":[],"categories_nodes":[],"categories_segments":[],"categories_sizes":[],"default_left":[0,0,0,0,0,0,0],"id":31,"left_children":[1,3,-1,5,-1,-1,-1],"loss_changes":[7.111747E0,7.0374265E0,0E0,6.9856906E0,0E0,0E0,0E0],"parents":[2147483647,0,0,1,1,3,3],"right_children":[2,4,-1,6,-1,-1,-1],"split_conditions":[3.0474033E1,5.2801514E1,2.662936E-1,1.7575235E1,-3.7560645E-1,-9.076654E-4,1.6655396E-1],"split_indices":[18,1134,0,2520,0,0,0],"split_type":[0,0,0,0,0,0,0],"sum_hessian":[2.789E3,2.786E3,3E0,2.785E3,1E0,2.776E3,9E0],"tree_param":{"num_deleted":"0","num_feature":"2677","num_nodes":"7","size_leaf_vector":"1"}},{"base_weights":[-7.553261E-4,5.5554113E-4,-3.656764E-1,-1.7138713E-3,1.0534703E0,-7.1313564E-4,2.572367E-1,2.6593858E-1,-3.2764245E-2],"categories":[],"categories_nodes":[],"categories_segments":[],"categories_sizes":[],"default_left":[0,0,0,0,0,0,0,0,0],"id":32,"left_children":[1,3,-1,5,7,-1,-1,-1,-1],"loss_changes":[6.6852307E0,6.6661153E0,0E0,6.644251E0,2.2352915E0,0E0,0E0,0E0,0E0],"parents":[2147483647,0,0,1,1,3,3,4,4],"right_children":[2,4,-1,6,8,-1,-1,-1,-1],"split_conditions":[5.2801514E1,2.359661E1,-3.656764E-1,3.0474033E1,4.503957E-2,-7.1313564E-4,2.572367E-1,2.6593858E-1,-3.2764245E-2],"split_indices":[787,537,0,509,0,0,0,0,0],"split_type":[0,0,0,0,0,0,0,0,0],"sum_hessian":[2.789E3,2.788E3,1E0,2.783E3,5E0,2.78E3,3E0,4E0,1E0],"tree_param":{"num_deleted":"0","num_feature":"2677","num_nodes":"9","size_leaf_vector":"1"}},{"base_weights":[-5.595956E-4,1.5078665E-3,-1.1524376E0,2.8147192E-3,-3.6380768E-1,-3.1311634E-1,-7.102954E-2,8.242337E-4,-3.6343405E-1],"categories":[],"categories_nodes":[],"categories_segments":[],"categories_sizes":[],"default_left":[0,0,0,0,0,0,0,0,0],"id":33,"left_children":[1,3,5,7,-1,-1,-1,-1,-1],"loss_changes":[6.6460223E0,6.6335316E0,1.0909657E0,6.6294336E0,0E0,0E0,0E0,0E0,0E0],"parents":[2147483647,0,0,1,1,2,2,3,3],"right_children":[2,4,6,8,-1,-1,-1,-1,-1],"split_conditions":[2.6386549E1,5.2801514E1,1.7015438E0,5.2801514E1,-3.6380768E-1,-3.1311634E-1,-7.102954E-2,8.242337E-4,-3.6343405E-1],"split_indices":[1628,1504,2651,828,0,0,0,0,0],"split_type":[0,0,0,0,0,0,0,0,0],"sum_hessian":[2.789E3,2.785E3,4E0,2.784E3,1E0,2E0,2E0,2.783E3,1E0],"tree_param":{"num_deleted":"0","num_feature":"2677","num_nodes":"9","size_leaf_vector":"1"}},{"base_weights":[-8.4546953E-4,-2.1331625E-3,3.5905305E-1,-8.450533E-4,-3.593382E-1,-4.256325E-4,3.5751802E-1],"categories":[],"categories_nodes":[],"categories_segments":[],"categories_sizes":[],"default_left":[0,0,0,0,0,0,0],"id":34,"left_children":[1,3,-1,5,-1,-1,-1],"loss_changes":[6.456651E0,6.4454966E0,0E0,6.401588E0,0E0,0E0,0E0],"parents":[2147483647,0,0,1,1,3,3],"right_children":[2,4,-1,6,-1,-1,-1],"split_conditions":[5.2801514E1,5.2801514E1,3.5905305E-1,5.2801514E1,-3.593382E-1,-4.256325E-4,3.5751802E-1],"split_indices":[890,2511,0,1131,0,0,0],"split_type":[0,0,0,0,0,0,0],"sum_hessian":[2.789E3,2.788E3,1E0,2.787E3,1E0,2.786E3,1E0],"tree_param":{"num_deleted":"0","num_feature":"2677","num_nodes":"7","size_leaf_vector":"1"}},{"base_weights":[-5.487811E-4,7.439685E-4,-3.6060277E-1,-1.0766339E-3,1.2686076E0,-5.282256E-4,2.9022655E-1,3.0097517E-1,5.5980302E-2],"categories":[],"categories_nodes":[],"categories_segments":[],"categories_sizes":[],"default_left":[0,0,0,0,0,0,0,0,0],"id":35,"left_children":[1,3,-1,5,7,-1,-1,-1,-1],"loss_changes":[6.502421E0,6.439147E0,0E0,6.3335505E0,5.131817E-1,0E0,0E0,0E0,0E0],"parents":[2147483647,0,0,1,1,3,3,4,4],"right_children":[2,4,-1,6,8,-1,-1,-1,-1],"split_conditions":[5.2801514E1,3.0474033E1,-3.6060277E-1,3.7329613E1,7.5444466E-1,-5.282256E-4,2.9022655E-1,3.0097517E-1,5.5980302E-2],"split_indices":[820,913,0,172,0,0,0,0,0],"split_type":[0,0,0,0,0,0,0,0,0],"sum_hessian":[2.789E3,2.788E3,1E0,2.785E3,3E0,2.783E3,2E0,2E0,1E0],"tree_param":{"num_deleted":"0","num_feature":"2677","num_nodes":"9","size_leaf_vector":"1"}},{"base_weights":[-3.3638897E-4,9.362743E-4,-3.5497943E-1,2.2061854E-3,-3.5395756E-1,8.0007233E-4,-2.4950814E-1],"categories":[],"categories_nodes":[],"categories_segments":[],"categories_sizes":[],"default_left":[0,0,0,0,0,0,0],"id":36,"left_children":[1,3,-1,5,-1,-1,-1],"loss_changes":[6.3026485E0,6.2754226E0,0E0,6.2564297E0,0E0,0E0,0E0],"parents":[2147483647,0,0,1,1,3,3],"right_children":[2,4,-1,6,-1,-1,-1],"split_conditions":[5.2801514E1,5.2801514E1,-3.5497943E-1,3.0474033E1,-3.5395756E-1,8.0007233E-4,-2.4950814E-1],"split_indices":[504,485,0,1625,0,0,0],"split_type":[0,0,0,0,0,0,0],"sum_hessian":[2.789E3,2.788E3,1E0,2.787E3,1E0,2.784E3,3E0],"tree_param":{"num_deleted":"0","num_feature":"2677","num_nodes":"7","size_leaf_vector":"1"}},{"base_weights":[-6.115831E-4,-1.87549E-3,3.5244247E-1,-5.350277E-3,6.410851E-1,-1.7707592E-2,4.4763046E-3,1.5482853E-1,-1.22171976E-1],"categories":[],"categories_nodes":[],"categories_segments":[],"categories_sizes":[],"default_left":[0,0,0,0,0,0,0,0,0],"id":37,"left_children":[1,3,-1,5,7,-1,-1,-1,-1],"loss_changes":[6.219551E0,6.2344775E0,0E0,6.4037514E0,2.971603E0,0E0,0E0,0E0,0E0],"parents":[2147483647,0,0,1,1,3,3,4,4],"right_children":[2,4,-1,6,8,-1,-1,-1,-1],"split_conditions":[5.2801514E1,1.4078859E1,3.5244247E-1,-6.618855E-1,2.153679E1,-1.7707592E-2,4.4763046E-3,1.5482853E-1,-1.22171976E-1],"split_indices":[895,2437,0,1,1162,0,0,0,0],"split_type":[0,0,0,0,0,0,0,0,0],"sum_hessian":[2.789E3,2.788E3,1E0,2.774E3,1.4E1,6.93E2,2.081E3,1.3E1,1E0],"tree_param":{"num_deleted":"0","num_feature":"2677","num_nodes":"9","size_leaf_vector":"1"}},{"base_weights":[-3.561061E-4,-2.1394112E-3,1.2422507E0,-5.608199E-3,6.3926655E-1,5.7014562E-2,2.9325715E-1,-1.4305896E-3,2.8461882E-1,1.6763334E-1,-2.3450136E-2],"categories":[],"categories_nodes":[],"categories_segments":[],"categories_sizes":[],"default_left":[0,0,0,0,0,0,0,0,0,0,0],"id":38,"left_children":[1,3,5,7,9,-1,-1,-1,-1,-1,-1],"loss_changes":[6.1851497E0,6.2043853E0,4.3976688E-1,6.130152E0,2.3553467E0,0E0,0E0,0E0,0E0,0E0,0E0],"parents":[2147483647,0,0,1,1,2,2,3,3,4,4],"right_children":[2,4,6,8,10,-1,-1,-1,-1,-1,-1],"split_conditions":[3.0474033E1,1.4078859E1,-6.136937E-1,3.7329613E1,3.8531275E0,5.7014562E-2,2.9325715E-1,-1.4305896E-3,2.8461882E-1,1.6763334E-1,-2.3450136E-2],"split_indices":[2485,1969,0,950,2671,0,0,0,0,0,0],"split_type":[0,0,0,0,0,0,0,0,0,0,0],"sum_hessian":[2.789E3,2.786E3,3E0,2.772E3,1.4E1,1E0,2E0,2.77E3,2E0,1.1E1,3E0],"tree_param":{"num_deleted":"0","num_feature":"2677","num_nodes":"11","size_leaf_vector":"1"}},{"base_weights":[-6.235116E-6,1.5308207E-3,-2.8568828E-1,3.5177213E-3,-1.1050816E0,1.0101947E-3,-2.8389806E-1,-9.422493E-3,-5.336958E-1],"categories":[],"categories_nodes":[],"categories_segments":[],"categories_sizes":[],"default_left":[0,0,0,0,0,0,0,0,0],"id":39,"left_children":[1,3,-1,5,7,-1,-1,-1,-1],"loss_changes":[6.1278677E0,6.1339426E0,0E0,6.0813823E0,8.144413E0,0E0,0E0,0E0,0E0],"parents":[2147483647,0,0,1,1,3,3,4,4],"right_children":[2,4,-1,6,8,-1,-1,-1,-1],"split_conditions":[3.7329613E1,2.6386549E1,-2.8568828E-1,3.7329613E1,1.7172086E0,1.0101947E-3,-2.8389806E-1,-9.422493E-3,-5.336958E-1],"split_indices":[835,140,0,28,0,0,0,0,0],"split_type":[0,0,0,0,0,0,0,0,0],"sum_hessian":[2.789E3,2.787E3,2E0,2.783E3,4E0,2.781E3,2E0,3E0,1E0],"tree_param":{"num_deleted":"0","num_feature":"2677","num_nodes":"9","size_leaf_vector":"1"}},{"base_weights":[-4.0402156E-4,1.5607626E-3,-1.095101E0,4.1806492E-5,2.8212637E-1,-3.8933564E-2,-2.5430846E-1,-3.4121645E-4,2.430502E-1],"categories":[],"categories_nodes":[],"categories_segments":[],"categories_sizes":[],"default_left":[0,0,0,0,0,0,0,0,0],"id":40,"left_children":[1,3,5,7,-1,-1,-1,-1,-1],"loss_changes":[6.002562E0,5.9628644E0,5.468402E-1,5.9154296E0,0E0,0E0,0E0,0E0,0E0],"parents":[2147483647,0,0,1,1,2,2,3,3],"right_children":[2,4,6,8,-1,-1,-1,-1,-1],"split_conditions":[2.6386549E1,3.7329613E1,-6.643655E-1,3.0474033E1,2.8212637E-1,-3.8933564E-2,-2.5430846E-1,-3.4121645E-4,2.430502E-1],"split_indices":[2630,621,0,474,0,0,0,0,0],"split_type":[0,0,0,0,0,0,0,0,0],"sum_hessian":[2.789E3,2.785E3,4E0,2.783E3,2E0,1E0,3E0,2.78E3,3E0],"tree_param":{"num_deleted":"0","num_feature":"2677","num_nodes":"9","size_leaf_vector":"1"}},{"base_weights":[-2.4000974E-4,-2.0059159E-3,2.4604301E-1,-4.1364037E-5,-2.1901487E-1,2.3883556E-4,-3.4373188E-1],"categories":[],"categories_nodes":[],"categories_segments":[],"categories_sizes":[],"default_left":[0,0,0,0,0,0,0],"id":41,"left_children":[1,3,-1,5,-1,-1,-1],"loss_changes":[6.06477E0,5.984729E0,0E0,5.911543E0,0E0,0E0,0E0],"parents":[2147483647,0,0,1,1,3,3],"right_children":[2,4,-1,6,-1,-1,-1],"split_conditions":[3.0474033E1,2.6386549E1,2.4604301E-1,5.2801514E1,-2.1901487E-1,2.3883556E-4,-3.4373188E-1],"split_indices":[2162,1992,0,1365,0,0,0],"split_type":[0,0,0,0,0,0,0],"sum_hessian":[2.789E3,2.786E3,3E0,2.782E3,4E0,2.781E3,1E0],"tree_param":{"num_deleted":"0","num_feature":"2677","num_nodes":"7","size_leaf_vector":"1"}},{"base_weights":[-3.0501958E-4,9.256967E-4,-3.4327728E-1,2.155861E-3,-3.428772E-1,-1.774448E-3,4.094113E-2],"categories":[],"categories_nodes":[],"categories_segments":[],"categories_sizes":[],"default_left":[0,0,0,0,0,0,0],"id":42,"left_children":[1,3,-1,5,-1,-1,-1],"loss_changes":[5.8940945E0,5.888807E0,0E0,6.2294817E0,0E0,0E0,0E0],"parents":[2147483647,0,0,1,1,3,3],"right_children":[2,4,-1,6,-1,-1,-1],"split_conditions":[5.2801514E1,5.2801514E1,-3.4327728E-1,4.285797E0,-3.428772E-1,-1.774448E-3,4.094113E-2],"split_indices":[521,1381,0,2655,0,0,0],"split_type":[0,0,0,0,0,0,0],"sum_hessian":[2.789E3,2.788E3,1E0,2.787E3,1E0,2.644E3,1.43E2],"tree_param":{"num_deleted":"0","num_feature":"2677","num_nodes":"7","size_leaf_vector":"1"}},{"base_weights":[-4.7638186E-4,7.6345477E-4,-3.4583807E-1,1.9898515E-3,-3.4184304E-1,6.418183E-4,-3.3960316E-1],"categories":[],"categories_nodes":[],"categories_segments":[],"categories_sizes":[],"default_left":[0,0,0,0,0,0,0],"id":43,"left_children":[1,3,-1,5,-1,-1,-1],"loss_changes":[5.9811907E0,5.8522468E0,0E0,5.784177E0,0E0,0E0,0E0],"parents":[2147483647,0,0,1,1,3,3],"right_children":[2,4,-1,6,-1,-1,-1],"split_conditions":[5.2801514E1,5.2801514E1,-3.4583807E-1,5.2801514E1,-3.4184304E-1,6.418183E-4,-3.3960316E-1],"split_indices":[2547,1200,0,578,0,0,0],"split_type":[0,0,0,0,0,0,0],"sum_hessian":[2.789E3,2.788E3,1E0,2.787E3,1E0,2.786E3,1E0],"tree_param":{"num_deleted":"0","num_feature":"2677","num_nodes":"7","size_leaf_vector":"1"}},{"base_weights":[-7.482522E-4,4.653876E-4,-3.3855897E-1,1.6790534E-3,-3.383235E-1,5.7816855E-4,-3.375578E-1],"categories":[],"categories_nodes":[],"categories_segments":[],"categories_sizes":[],"default_left":[0,0,0,0,0,0,0],"id":44,"left_children":[1,3,-1,5,-1,-1,-1],"loss_changes":[5.7301507E0,5.7303953E0,0E0,5.712694E0,0E0,0E0,0E0],"parents":[2147483647,0,0,1,1,3,3],"right_children":[2,4,-1,6,-1,-1,-1],"split_conditions":[5.2801514E1,5.2801514E1,-3.3855897E-1,5.2801514E1,-3.383235E-1,5.7816855E-4,-3.375578E-1],"split_indices":[27,1134,0,2340,0,0,0],"split_type":[0,0,0,0,0,0,0],"sum_hessian":[2.789E3,2.788E3,1E0,2.787E3,1E0,2.786E3,1E0],"tree_param":{"num_deleted":"0","num_feature":"2677","num_nodes":"7","size_leaf_vector":"1"}},{"base_weights":[-9.6175115E-4,7.5270125E-4,-1.195266E0,2.8530294E-3,-9.7322494E-1,-3.2716504E-1,1.2641144E-2,1.0254896E-3,-1.799048E-1,-2.258461E-1,-1.9319726E-2],"categories":[],"categories_nodes":[],"categories_segments":[],"categories_sizes":[],"default_left":[0,0,0,0,0,0,0,0,0,0,0],"id":45,"left_children":[1,3,5,7,9,-1,-1,-1,-1,-1,-1],"loss_changes":[5.7136416E0,5.704067E0,2.3211184E0,5.7143426E0,7.114692E-1,0E0,0E0,0E0,0E0,0E0,0E0],"parents":[2147483647,0,0,1,1,2,2,3,3,4,4],"right_children":[2,4,6,8,10,-1,-1,-1,-1,-1,-1],"split_conditions":[3.0474033E1,2.359661E1,-1.069758E-1,2.153679E1,1.5212385E1,-3.2716504E-1,1.2641144E-2,1.0254896E-3,-1.799048E-1,-2.258461E-1,-1.9319726E-2],"split_indices":[2420,923,0,1878,1498,0,0,0,0,0,0],"split_type":[0,0,0,0,0,0,0,0,0,0,0],"sum_hessian":[2.789E3,2.786E3,3E0,2.781E3,5E0,2E0,1E0,2.775E3,6E0,4E0,1E0],"tree_param":{"num_deleted":"0","num_feature":"2677","num_nodes":"11","size_leaf_vector":"1"}},{"base_weights":[-1.0346604E-3,-5.4935627E-3,4.5546314E-1,-6.98682E-3,1.37113E0,9.855547E-1,2.2065334E-1,-1.8803846E-3,1.651175E-1,3.9961435E-2,3.7137756E-1,2.2883733E-1,-1.248684E-2,-1.3889708E-1,7.218359E-2],"categories":[],"categories_nodes":[],"categories_segments":[],"categories_sizes":[],"default_left":[0,0,0,0,0,0,0,0,0,0,0,0,0,0,0],"id":46,"left_children":[1,3,5,7,9,11,13,-1,-1,-1,-1,-1,-1,-1,-1],"loss_changes":[5.6814885E0,5.691406E0,3.1432428E0,5.56146E0,1.3359184E0,1.4013915E0,2.8178833E0,0E0,0E0,0E0,0E0,0E0,0E0,0E0,0E0],"parents":[2147483647,0,0,1,1,2,2,3,3,4,4,5,5,6,6],"right_children":[2,4,6,8,10,12,14,-1,-1,-1,-1,-1,-1,-1,-1],"split_conditions":[1.0308697E1,3.7329613E1,-7.1624315E-1,1.993561E1,-7.150373E-1,-5.6322175E-3,-5.533872E-1,-1.8803846E-3,1.651175E-1,3.9961435E-2,3.7137756E-1,2.2883733E-1,-1.248684E-2,-1.3889708E-1,7.218359E-2],"split_indices":[1911,614,1,1346,0,0,1,0,0,0,0,0,0,0,0],"split_type":[0,0,0,0,0,0,0,0,0,0,0,0,0,0,0],"sum_hessian":[2.789E3,2.763E3,2.6E1,2.761E3,2E0,7E0,1.9E1,2.754E3,7E0,1E0,1E0,6E0,1E0,2E0,1.7E1],"tree_param":{"num_deleted":"0","num_feature":"2677","num_nodes":"15","size_leaf_vector":"1"}},{"base_weights":[-5.6789664E-4,1.32801E-3,-1.0568535E0,2.5229664E-3,-3.3266258E-1,-2.4218474E-1,-4.4057276E-2,7.9524814E-4,-2.6929444E-1],"categories":[],"categories_nodes":[],"categories_segments":[],"categories_sizes":[],"default_left":[0,0,0,0,0,0,0,0,0],"id":47,"left_children":[1,3,5,7,-1,-1,-1,-1,-1],"loss_changes":[5.5887103E0,5.546034E0,3.7769985E-1,5.4652348E0,0E0,0E0,0E0,0E0,0E0],"parents":[2147483647,0,0,1,1,2,2,3,3],"right_children":[2,4,6,8,-1,-1,-1,-1,-1],"split_conditions":[2.6386549E1,5.2801514E1,1.6670334E1,3.7329613E1,-3.3266258E-1,-2.4218474E-1,-4.4057276E-2,7.9524814E-4,-2.6929444E-1],"split_indices":[1166,1107,1957,1385,0,0,0,0,0],"split_type":[0,0,0,0,0,0,0,0,0],"sum_hessian":[2.789E3,2.785E3,4E0,2.784E3,1E0,3E0,1E0,2.782E3,2E0],"tree_param":{"num_deleted":"0","num_feature":"2677","num_nodes":"9","size_leaf_vector":"1"}},{"base_weights":[-7.7249773E-4,1.2855916E-3,-9.5594025E-1,-3.9100132E-4,2.3340693E-1,-1.1936855E0,2.3278618E-2,-2.2313846E-3,3.6181375E-2,-2.9025394E-1,-1.6334916E-2],"categories":[],"categories_nodes":[],"categories_segments":[],"categories_sizes":[],"default_left":[0,0,0,0,0,0,0,0,0,0,0],"id":48,"left_children":[1,3,5,7,-1,9,-1,-1,-1,-1,-1],"loss_changes":[5.4858685E0,5.4437017E0,1.6685896E0,5.432034E0,0E0,1.3136506E0,0E0,0E0,0E0,0E0,0E0],"parents":[2147483647,0,0,1,1,2,2,3,3,5,5],"right_children":[2,4,6,8,-1,10,-1,-1,-1,-1,-1],"split_conditions":[2.359661E1,3.0474033E1,1.4078859E1,2.2458687E0,2.3340693E-1,1.993561E1,2.3278618E-2,-2.2313846E-3,3.6181375E-2,-2.9025394E-1,-1.6334916E-2],"split_indices":[75,558,2412,1,0,1489,0,0,0,0,0],"split_type":[0,0,0,0,0,0,0,0,0,0,0],"sum_hessian":[2.789E3,2.784E3,5E0,2.781E3,3E0,4E0,1E0,2.626E3,1.55E2,3E0,1E0],"tree_param":{"num_deleted":"0","num_feature":"2677","num_nodes":"11","size_leaf_vector":"1"}},{"base_weights":[-6.234658E-4,5.569721E-4,-3.292865E-1,1.7373945E-3,-3.2904607E-1,6.814858E-4,-2.322917E-1],"categories":[],"categories_nodes":[],"categories_segments":[],"categories_sizes":[],"default_left":[0,0,0,0,0,0,0],"id":49,"left_children":[1,3,-1,5,-1,-1,-1],"loss_changes":[5.42126E0,5.4211164E0,0E0,5.4198627E0,0E0,0E0,0E0],"parents":[2147483647,0,0,1,1,3,3],"right_children":[2,4,-1,6,-1,-1,-1],"split_conditions":[5.2801514E1,5.2801514E1,-3.292865E-1,3.0474033E1,-3.2904607E-1,6.814858E-4,-2.322917E-1],"split_indices":[787,568,0,1028,0,0,0],"split_type":[0,0,0,0,0,0,0],"sum_hessian":[2.789E3,2.788E3,1E0,2.787E3,1E0,2.784E3,3E0],"tree_param":{"num_deleted":"0","num_feature":"2677","num_nodes":"7","size_leaf_vector":"1"}},{"base_weights":[-8.173088E-4,6.2734494E-4,-2.6862195E-1,2.0701308E-3,-2.678898E-1,6.491867E-4,-3.2725412E-1],"categories":[],"categories_nodes":[],"categories_segments":[],"categories_sizes":[],"default_left":[0,0,0,0,0,0,0],"id":50,"left_children":[1,3,-1,5,-1,-1,-1],"loss_changes":[5.411065E0,5.393212E0,0E0,5.3721666E0,0E0,0E0,0E0],"parents":[2147483647,0,0,1,1,3,3],"right_children":[2,4,-1,6,-1,-1,-1],"split_conditions":[3.7329613E1,3.7329613E1,-2.6862195E-1,5.2801514E1,-2.678898E-1,6.491867E-4,-3.2725412E-1],"split_indices":[450,2613,0,828,0,0,0],"split_type":[0,0,0,0,0,0,0],"sum_hessian":[2.789E3,2.787E3,2E0,2.785E3,2E0,2.784E3,1E0],"tree_param":{"num_deleted":"0","num_feature":"2677","num_nodes":"7","size_leaf_vector":"1"}},{"base_weights":[-9.6264365E-4,-2.4073678E-3,1.3419886E0,-3.5747022E-3,3.250954E-1,3.2979727E-1,7.27993E-2,-1.0451907E-3,2.2931801E-1],"categories":[],"categories_nodes":[],"categories_segments":[],"categories_sizes":[],"default_left":[0,0,0,0,0,0,0,0,0],"id":51,"left_children":[1,3,5,7,-1,-1,-1,-1,-1],"loss_changes":[5.416372E0,5.303806E0,3.0049944E-1,5.2990937E0,0E0,0E0,0E0,0E0,0E0],"parents":[2147483647,0,0,1,1,2,2,3,3],"right_children":[2,4,6,8,-1,-1,-1,-1,-1],"split_conditions":[3.7329613E1,5.2801514E1,5.2801514E1,3.0474033E1,3.250954E-1,3.2979727E-1,7.27993E-2,-1.0451907E-3,2.2931801E-1],"split_indices":[532,890,1491,18,0,0,0,0,0],"split_type":[0,0,0,0,0,0,0,0,0],"sum_hessian":[2.789E3,2.787E3,2E0,2.786E3,1E0,1E0,1E0,2.783E3,3E0],"tree_param":{"num_deleted":"0","num_feature":"2677","num_nodes":"9","size_leaf_vector":"1"}},{"base_weights":[-4.2743888E-4,1.0034627E-3,-2.6601392E-1,2.1690964E-3,-3.2476178E-1,2.0151399E-4,3.238182E-1],"categories":[],"categories_nodes":[],"categories_segments":[],"categories_sizes":[],"default_left":[0,0,0,0,0,0,0],"id":52,"left_children":[1,3,-1,5,-1,-1,-1],"loss_changes":[5.3095527E0,5.283816E0,0E0,5.232627E0,0E0,0E0,0E0],"parents":[2147483647,0,0,1,1,3,3],"right_children":[2,4,-1,6,-1,-1,-1],"split_conditions":[3.7329613E1,5.2801514E1,-2.6601392E-1,5.2801514E1,-3.2476178E-1,2.0151399E-4,3.238182E-1],"split_indices":[467,820,0,1131,0,0,0],"split_type":[0,0,0,0,0,0,0],"sum_hessian":[2.789E3,2.787E3,2E0,2.786E3,1E0,2.785E3,1E0],"tree_param":{"num_deleted":"0","num_feature":"2677","num_nodes":"7","size_leaf_vector":"1"}},{"base_weights":[-4.38105E-4,1.3883674E-3,-1.0180609E0,-2.371912E-4,3.018888E-1,-1.4878459E0,8.6107925E-2,-4.1302943E-4,2.0323074E-1,-3.4443647E-1,-7.848368E-2],"categories":[],"categories_nodes":[],"categories_segments":[],"categories_sizes":[],"default_left":[0,0,0,0,0,0,0,0,0,0,0],"id":53,"left_children":[1,3,5,7,-1,9,-1,-1,-1,-1,-1],"loss_changes":[5.1870747E0,6.830049E0,4.0432305E0,5.1745415E0,0E0,3.509779E-1,0E0,0E0,0E0,0E0,0E0],"parents":[2147483647,0,0,1,1,2,2,3,3,5,5],"right_children":[2,4,6,8,-1,10,-1,-1,-1,-1,-1],"split_conditions":[2.6386549E1,3.0474033E1,-4.6167833E-1,2.6386549E1,3.018888E-1,-7.150373E-1,8.6107925E-2,-4.1302943E-4,2.0323074E-1,-3.4443647E-1,-7.848368E-2],"split_indices":[2513,1355,0,1277,0,0,0,0,0,0,0],"split_type":[0,0,0,0,0,0,0,0,0,0,0],"sum_hessian":[2.789E3,2.785E3,4E0,2.783E3,2E0,3E0,1E0,2.779E3,4E0,2E0,1E0],"tree_param":{"num_deleted":"0","num_feature":"2677","num_nodes":"11","size_leaf_vector":"1"}},{"base_weights":[-2.8956664E-4,8.624673E-4,-3.2133123E-1,-7.6469517E-4,2.267931E-1,7.673377E-5,-3.1989583E-1],"categories":[],"categories_nodes":[],"categories_segments":[],"categories_sizes":[],"default_left":[0,0,0,0,0,0,0],"id":54,"left_children":[1,3,-1,5,-1,-1,-1],"loss_changes":[5.164528E0,5.1430655E0,0E0,5.115448E0,0E0,0E0,0E0],"parents":[2147483647,0,0,1,1,3,3],"right_children":[2,4,-1,6,-1,-1,-1],"split_conditions":[5.2801514E1,3.0474033E1,-3.2133123E-1,5.2801514E1,2.267931E-1,7.673377E-5,-3.1989583E-1],"split_indices":[738,478,0,1331,0,0,0],"split_type":[0,0,0,0,0,0,0],"sum_hessian":[2.789E3,2.788E3,1E0,2.785E3,3E0,2.784E3,1E0],"tree_param":{"num_deleted":"0","num_feature":"2677","num_nodes":"7","size_leaf_vector":"1"}},{"base_weights":[-3.7972987E-4,-2.0018525E-3,2.2598581E-1,-3.8148481E-3,1.0075119E0,-5.338553E-4,-3.190795E-1,2.6821157E-1,-3.266716E-2],"categories":[],"categories_nodes":[],"categories_segments":[],"categories_sizes":[],"default_left":[0,0,0,0,0,0,0,0,0],"id":55,"left_children":[1,3,-1,5,7,-1,-1,-1,-1],"loss_changes":[5.117725E0,5.104734E0,0E0,5.0699067E0,2.1716995E0,0E0,0E0,0E0,0E0],"parents":[2147483647,0,0,1,1,3,3,4,4],"right_children":[2,4,-1,6,8,-1,-1,-1,-1],"split_conditions":[3.0474033E1,2.6386549E1,2.2598581E-1,5.2801514E1,8.5578823E-1,-5.338553E-4,-3.190795E-1,2.6821157E-1,-3.266716E-2],"split_indices":[2054,640,0,803,0,0,0,0,0],"split_type":[0,0,0,0,0,0,0,0,0],"sum_hessian":[2.789E3,2.786E3,3E0,2.782E3,4E0,2.781E3,1E0,3E0,1E0],"tree_param":{"num_deleted":"0","num_feature":"2677","num_nodes":"9","size_leaf_vector":"1"}},{"base_weights":[-2.5271619E-4,1.5542711E-3,-1.0070555E0,2.695564E-3,-3.1769466E-1,-3.0195004E-1,1.00372314E-1,7.6682377E-4,-3.167041E-1],"categories":[],"categories_nodes":[],"categories_segments":[],"categories_sizes":[],"default_left":[0,0,0,0,0,0,0,0,0],"id":56,"left_children":[1,3,5,7,-1,-1,-1,-1,-1],"loss_changes":[5.0773554E0,5.060001E0,4.550308E0,5.0357637E0,0E0,0E0,0E0,0E0,0E0],"parents":[2147483647,0,0,1,1,2,2,3,3],"right_children":[2,4,6,8,-1,-1,-1,-1,-1],"split_conditions":[2.6386549E1,5.2801514E1,4.503957E-2,5.2801514E1,-3.1769466E-1,-3.0195004E-1,1.00372314E-1,7.6682377E-4,-3.167041E-1],"split_indices":[271,2183,0,736,0,0,0,0,0],"split_type":[0,0,0,0,0,0,0,0,0],"sum_hessian":[2.789E3,2.785E3,4E0,2.784E3,1E0,3E0,1E0,2.783E3,1E0],"tree_param":{"num_deleted":"0","num_feature":"2677","num_nodes":"9","size_leaf_vector":"1"}},{"base_weights":[-5.014618E-4,-2.7833919E-3,7.9338765E-1,-3.925646E-3,3.1749687E-1,-1.6626422E-1,2.2819646E-1,-1.1081204E-3,2.2380924E-1,-5.880661E-2,8.927345E-3],"categories":[],"categories_nodes":[],"categories_segments":[],"categories_sizes":[],"default_left":[0,0,0,0,0,0,0,0,0,0,0],"id":57,"left_children":[1,3,5,7,-1,9,-1,-1,-1,-1,-1],"loss_changes":[5.056571E0,5.061525E0,2.858264E0,5.0514956E0,0E0,9.396437E-2,0E0,0E0,0E0,0E0,0E0],"parents":[2147483647,0,0,1,1,2,2,3,3,5,5],"right_children":[2,4,6,8,-1,10,-1,-1,-1,-1,-1],"split_conditions":[1.993561E1,5.2801514E1,4.285797E0,3.0474033E1,3.1749687E-1,1.9705494E-1,2.2819646E-1,-1.1081204E-3,2.2380924E-1,-5.880661E-2,8.927345E-3],"split_indices":[524,895,2655,913,0,0,0,0,0,0,0],"split_type":[0,0,0,0,0,0,0,0,0,0,0],"sum_hessian":[2.789E3,2.782E3,7E0,2.781E3,1E0,2E0,5E0,2.778E3,3E0,1E0,1E0],"tree_param":{"num_deleted":"0","num_feature":"2677","num_nodes":"11","size_leaf_vector":"1"}},{"base_weights":[-1.4358849E-4,9.907506E-4,-3.1638154E-1,2.784439E-3,-9.982918E-1,7.111283E-6,1.3919988E-1,-9.593583E-3,-4.7995874E-1],"categories":[],"categories_nodes":[],"categories_segments":[],"categories_sizes":[],"default_left":[0,0,0,0,0,0,0,0,0],"id":58,"left_children":[1,3,-1,5,7,-1,-1,-1,-1],"loss_changes":[5.007544E0,5.001787E0,0E0,5.3069777E0,6.5442905E0,0E0,0E0,0E0,0E0],"parents":[2147483647,0,0,1,1,3,3,4,4],"right_children":[2,4,-1,6,8,-1,-1,-1,-1],"split_conditions":[5.2801514E1,2.6386549E1,-3.1638154E-1,1.5891679E1,1.7172086E0,7.111283E-6,1.3919988E-1,-9.593583E-3,-4.7995874E-1],"split_indices":[485,140,0,1800,0,0,0,0,0],"split_type":[0,0,0,0,0,0,0,0,0],"sum_hessian":[2.789E3,2.788E3,1E0,2.784E3,4E0,2.774E3,1E1,3E0,1E0],"tree_param":{"num_deleted":"0","num_feature":"2677","num_nodes":"9","size_leaf_vector":"1"}},{"base_weights":[-3.5423395E-4,1.4301285E-3,-9.945301E-1,2.5506918E-3,-3.119339E-1,-2.4068823E-1,-1.5888596E-2,-3.064394E-4,1.7465322E-1],"categories":[],"categories_nodes":[],"categories_segments":[],"categories_sizes":[],"default_left":[0,0,0,0,0,0,0,0,0],"id":59,"left_children":[1,3,5,7,-1,-1,-1,-1,-1],"loss_changes":[4.950799E0,4.877559E0,8.602538E-1,9.902108E0,0E0,0E0,0E0,0E0,0E0],"parents":[2147483647,0,0,1,1,2,2,3,3],"right_children":[2,4,6,8,-1,-1,-1,-1,-1],"split_conditions":[2.6386549E1,5.2801514E1,-2.170425E-1,1.4612955E1,-3.119339E-1,-2.4068823E-1,-1.5888596E-2,-3.064394E-4,1.7465322E-1],"split_indices":[1628,1201,1,1571,0,0,0,0,0],"split_type":[0,0,0,0,0,0,0,0,0],"sum_hessian":[2.789E3,2.785E3,4E0,2.784E3,1E0,3E0,1E0,2.772E3,1.2E1],"tree_param":{"num_deleted":"0","num_feature":"2677","num_nodes":"9","size_leaf_vector":"1"}},{"base_weights":[-4.2415058E-4,-1.7930161E-3,2.5436994E-1,-4.29587E-3,6.939295E-1,-1.176717E-3,2.1973038E-1,1.6600537E-1,-5.3094674E-2],"categories":[],"categories_nodes":[],"categories_segments":[],"categories_sizes":[],"default_left":[0,0,0,0,0,0,0,0,0],"id":60,"left_children":[1,3,-1,5,7,-1,-1,-1,-1],"loss_changes":[4.8612657E0,4.857703E0,0E0,4.8729544E0,1.526072E0,0E0,0E0,0E0,0E0],"parents":[2147483647,0,0,1,1,3,3,4,4],"right_children":[2,4,-1,6,8,-1,-1,-1,-1],"split_conditions":[3.7329613E1,1.7575235E1,2.5436994E-1,3.0474033E1,3.0474033E1,-1.176717E-3,2.1973038E-1,1.6600537E-1,-5.3094674E-2],"split_indices":[172,2520,0,509,1063,0,0,0,0],"split_type":[0,0,0,0,0,0,0,0,0],"sum_hessian":[2.789E3,2.787E3,2E0,2.778E3,9E0,2.775E3,3E0,8E0,1E0],"tree_param":{"num_deleted":"0","num_feature":"2677","num_nodes":"9","size_leaf_vector":"1"}},{"base_weights":[-1.2922936E-4,9.853275E-4,-3.1086284E-1,-1.3794283E-3,7.315854E-1,-9.502249E-4,1.0328797E-1,-1.6394615E-2,1.6870537E-1],"categories":[],"categories_nodes":[],"categories_segments":[],"categories_sizes":[],"default_left":[0,0,0,0,0,0,0,0,0],"id":61,"left_children":[1,3,-1,5,7,-1,-1,-1,-1],"loss_changes":[4.834446E0,4.8195386E0,0E0,4.857883E0,8.887849E-1,0E0,0E0,0E0,0E0],"parents":[2147483647,0,0,1,1,3,3,4,4],"right_children":[2,4,-1,6,8,-1,-1,-1,-1],"split_conditions":[5.2801514E1,1.8644705E1,-3.1086284E-1,1.2769449E1,-5.360275E-1,-9.502249E-4,1.0328797E-1,-1.6394615E-2,1.6870537E-1],"split_indices":[156,2407,0,2463,1,0,0,0,0],"split_type":[0,0,0,0,0,0,0,0,0],"sum_hessian":[2.789E3,2.788E3,1E0,2.78E3,8E0,2.763E3,1.7E1,1E0,7E0],"tree_param":{"num_deleted":"0","num_feature":"2677","num_nodes":"9","size_leaf_vector":"1"}},{"base_weights":[-1.2389699E-4,-1.6982274E-3,1.0968218E0,-3.4604534E-3,1.9589928E-1,3.0787012E-1,-2.307644E-2,-4.7037043E-4,-3.0875894E-1],"categories":[],"categories_nodes":[],"categories_segments":[],"categories_sizes":[],"default_left":[0,0,0,0,0,0,0,0,0],"id":62,"left_children":[1,3,5,7,-1,-1,-1,-1,-1],"loss_changes":[4.820067E0,4.822354E0,2.3233542E0,4.7486663E0,0E0,0E0,0E0,0E0,0E0],"parents":[2147483647,0,0,1,1,2,2,3,3],"right_children":[2,4,6,8,-1,-1,-1,-1,-1],"split_conditions":[3.0474033E1,2.6386549E1,-6.136937E-1,5.2801514E1,1.9589928E-1,3.0787012E-1,-2.307644E-2,-4.7037043E-4,-3.0875894E-1],"split_indices":[2304,145,0,1365,0,0,0,0,0],"split_type":[0,0,0,0,0,0,0,0,0],"sum_hessian":[2.789E3,2.786E3,3E0,2.782E3,4E0,2E0,1E0,2.781E3,1E0],"tree_param":{"num_deleted":"0","num_feature":"2677","num_nodes":"9","size_leaf_vector":"1"}},{"base_weights":[-3.7042555E-5,1.3137189E-3,-2.5106648E-1,2.8755753E-3,-2.1729146E-1,7.9595763E-4,-3.071253E-1],"categories":[],"categories_nodes":[],"categories_segments":[],"categories_sizes":[],"default_left":[0,0,0,0,0,0,0],"id":63,"left_children":[1,3,-1,5,-1,-1,-1],"loss_changes":[4.7323856E0,4.7397747E0,0E0,4.7373633E0,0E0,0E0,0E0],"parents":[2147483647,0,0,1,1,3,3],"right_children":[2,4,-1,6,-1,-1,-1],"split_conditions":[3.7329613E1,3.0474033E1,-2.5106648E-1,5.2801514E1,-2.1729146E-1,7.9595763E-4,-3.071253E-1],"split_indices":[2234,2145,0,1200,0,0,0],"split_type":[0,0,0,0,0,0,0],"sum_hessian":[2.789E3,2.787E3,2E0,2.784E3,3E0,2.783E3,1E0],"tree_param":{"num_deleted":"0","num_feature":"2677","num_nodes":"7","size_leaf_vector":"1"}},{"base_weights":[-3.0683054E-4,7.9940545E-4,-3.085599E-1,1.8997976E-3,-3.0670938E-1,6.8715504E-5,2.1698861E-1],"categories":[],"categories_nodes":[],"categories_segments":[],"categories_sizes":[],"default_left":[0,0,0,0,0,0,0],"id":64,"left_children":[1,3,-1,5,-1,-1,-1],"loss_changes":[4.76198E0,4.7118125E0,0E0,4.698672E0,0E0,0E0,0E0],"parents":[2147483647,0,0,1,1,3,3],"right_children":[2,4,-1,6,-1,-1,-1],"split_conditions":[5.2801514E1,5.2801514E1,-3.085599E-1,3.0474033E1,-3.0670938E-1,6.8715504E-5,2.1698861E-1],"split_indices":[521,560,0,2485,0,0,0],"split_type":[0,0,0,0,0,0,0],"sum_hessian":[2.789E3,2.788E3,1E0,2.787E3,1E0,2.784E3,3E0],"tree_param":{"num_deleted":"0","num_feature":"2677","num_nodes":"7","size_leaf_vector":"1"}},{"base_weights":[-3.8814236E-4,7.1679684E-4,-3.0820638E-1,-1.1837814E-3,8.8246566E-1,-9.007294E-4,1.0184381E-1,2.2979784E-1,4.658915E-2],"categories":[],"categories_nodes":[],"categories_segments":[],"categories_sizes":[],"default_left":[0,0,0,0,0,0,0,0,0],"id":65,"left_children":[1,3,-1,5,7,-1,-1,-1,-1],"loss_changes":[4.7505713E0,4.6749425E0,0E0,4.719694E0,7.7102184E-1,0E0,0E0,0E0,0E0],"parents":[2147483647,0,0,1,1,3,3,4,4],"right_children":[2,4,-1,6,8,-1,-1,-1,-1],"split_conditions":[5.2801514E1,2.359661E1,-3.0820638E-1,1.2407435E1,-2.170425E-1,-9.007294E-4,1.0184381E-1,2.2979784E-1,4.658915E-2],"split_indices":[1381,671,0,1620,1,0,0,0,0],"split_type":[0,0,0,0,0,0,0,0,0],"sum_hessian":[2.789E3,2.788E3,1E0,2.783E3,5E0,2.766E3,1.7E1,3E0,2E0],"tree_param":{"num_deleted":"0","num_feature":"2677","num_nodes":"9","size_leaf_vector":"1"}},{"base_weights":[-2.8618876E-4,-2.3357694E-3,1.6298044E-1,-1.240289E-3,-3.0510578E-1,-2.9521329E-5,-3.0410823E-1],"categories":[],"categories_nodes":[],"categories_segments":[],"categories_sizes":[],"default_left":[0,0,0,0,0,0,0],"id":66,"left_children":[1,3,-1,5,-1,-1,-1],"loss_changes":[4.6634197E0,4.643569E0,0E0,4.6198707E0,0E0,0E0,0E0],"parents":[2147483647,0,0,1,1,3,3],"right_children":[2,4,-1,6,-1,-1,-1],"split_conditions":[2.153679E1,5.2801514E1,1.6298044E-1,5.2801514E1,-3.0510578E-1,-2.9521329E-5,-3.0410823E-1],"split_indices":[1383,578,0,2103,0,0,0],"split_type":[0,0,0,0,0,0,0],"sum_hessian":[2.789E3,2.783E3,6E0,2.782E3,1E0,2.781E3,1E0],"tree_param":{"num_deleted":"0","num_feature":"2677","num_nodes":"7","size_leaf_vector":"1"}},{"base_weights":[-3.896891E-4,6.997853E-4,-3.038934E-1,2.0346637E-3,-2.479271E-1,6.2485255E-4,-3.0335885E-1],"categories":[],"categories_nodes":[],"categories_segments":[],"categories_sizes":[],"default_left":[0,0,0,0,0,0,0],"id":67,"left_children":[1,3,-1,5,-1,-1,-1],"loss_changes":[4.6185007E0,4.6202602E0,0E0,4.616986E0,0E0,0E0,0E0],"parents":[2147483647,0,0,1,1,3,3],"right_children":[2,4,-1,6,-1,-1,-1],"split_conditions":[5.2801514E1,3.7329613E1,-3.038934E-1,5.2801514E1,-2.479271E-1,6.2485255E-4,-3.0335885E-1],"split_indices":[1134,1389,0,273,0,0,0],"split_type":[0,0,0,0,0,0,0],"sum_hessian":[2.789E3,2.788E3,1E0,2.786E3,2E0,2.785E3,1E0],"tree_param":{"num_deleted":"0","num_feature":"2677","num_nodes":"7","size_leaf_vector":"1"}},{"base_weights":[-6.1867794E-4,4.6846678E-4,-3.0326653E-1,-8.6239463E-4,2.473365E-1,-6.767366E-2,1.0351627E-3],"categories":[],"categories_nodes":[],"categories_segments":[],"categories_sizes":[],"default_left":[0,0,0,0,0,0,0],"id":68,"left_children":[1,3,-1,5,-1,-1,-1],"loss_changes":[4.5980735E0,4.589612E0,0E0,5.6814647E0,0E0,0E0,0E0],"parents":[2147483647,0,0,1,1,3,3],"right_children":[2,4,-1,6,-1,-1,-1],"split_conditions":[5.2801514E1,3.7329613E1,-3.0326653E-1,-8.8973194E-1,2.473365E-1,-6.767366E-2,1.0351627E-3],"split_indices":[2340,950,0,1,0,0,0],"split_type":[0,0,0,0,0,0,0],"sum_hessian":[2.789E3,2.788E3,1E0,2.786E3,2E0,4.8E1,2.738E3],"tree_param":{"num_deleted":"0","num_feature":"2677","num_nodes":"7","size_leaf_vector":"1"}},{"base_weights":[-5.392851E-4,-1.8831517E-3,2.497081E-1,-3.4767095E-4,-2.1409817E-1,1.4749129E-4,-3.0213425E-1],"categories":[],"categories_nodes":[],"categories_segments":[],"categories_sizes":[],"default_left":[0,0,0,0,0,0,0],"id":69,"left_children":[1,3,-1,5,-1,-1,-1],"loss_changes":[4.685636E0,4.5742526E0,0E0,4.565432E0,0E0,0E0,0E0],"parents":[2147483647,0,0,1,1,3,3],"right_children":[2,4,-1,6,-1,-1,-1],"split_conditions":[3.7329613E1,3.0474033E1,2.497081E-1,5.2801514E1,-2.1409817E-1,1.4749129E-4,-3.0213425E-1],"split_indices":[621,1045,0,277,0,0,0],"split_type":[0,0,0,0,0,0,0],"sum_hessian":[2.789E3,2.787E3,2E0,2.784E3,3E0,2.783E3,1E0],"tree_param":{"num_deleted":"0","num_feature":"2677","num_nodes":"7","size_leaf_vector":"1"}},{"base_weights":[-5.264029E-4,8.0187456E-4,-2.469527E-1,-5.243292E-4,1.2321358E0,-4.8125755E-2,1.259604E-3,3.0390492E-1,6.573582E-2],"categories":[],"categories_nodes":[],"categories_segments":[],"categories_sizes":[],"default_left":[0,0,0,0,0,0,0,0,0],"id":70,"left_children":[1,3,-1,5,7,-1,-1,-1,-1],"loss_changes":[4.5749426E0,4.5534487E0,0E0,4.565196E0,2.794938E-1,0E0,0E0,0E0,0E0],"parents":[2147483647,0,0,1,1,3,3,4,4],"right_children":[2,4,-1,6,8,-1,-1,-1,-1],"split_conditions":[3.7329613E1,3.7329613E1,-2.469527E-1,-8.86477E-1,-8.8973194E-1,-4.8125755E-2,1.259604E-3,3.0390492E-1,6.573582E-2],"split_indices":[835,532,0,1,1,0,0,0,0],"split_type":[0,0,0,0,0,0,0,0,0],"sum_hessian":[2.789E3,2.787E3,2E0,2.785E3,2E0,7.6E1,2.709E3,1E0,1E0],"tree_param":{"num_deleted":"0","num_feature":"2677","num_nodes":"9","size_leaf_vector":"1"}},{"base_weights":[-3.9329735E-4,6.8787823E-4,-3.015792E-1,2.0100563E-3,-2.4556898E-1,6.168799E-4,-2.9911098E-1],"categories":[],"categories_nodes":[],"categories_segments":[],"categories_sizes":[],"default_left":[0,0,0,0,0,0,0],"id":71,"left_children":[1,3,-1,5,-1,-1,-1],"loss_changes":[4.5483885E0,4.5327497E0,0E0,4.488613E0,0E0,0E0,0E0],"parents":[2147483647,0,0,1,1,3,3],"right_children":[2,4,-1,6,-1,-1,-1],"split_conditions":[5.2801514E1,3.7329613E1,-3.015792E-1,5.2801514E1,-2.4556898E-1,6.168799E-4,-2.9911098E-1],"split_indices":[114,28,0,1107,0,0,0],"split_type":[0,0,0,0,0,0,0],"sum_hessian":[2.789E3,2.788E3,1E0,2.786E3,2E0,2.785E3,1E0],"tree_param":{"num_deleted":"0","num_feature":"2677","num_nodes":"7","size_leaf_vector":"1"}},{"base_weights":[-6.170536E-4,-2.1426387E-3,1.0624886E0,-3.4603006E-3,2.4436024E-1,2.5839922E-1,3.739662E-2,-9.066203E-4,2.9832172E-1],"categories":[],"categories_nodes":[],"categories_segments":[],"categories_sizes":[],"default_left":[0,0,0,0,0,0,0,0,0],"id":72,"left_children":[1,3,5,7,-1,-1,-1,-1,-1],"loss_changes":[4.5272603E0,4.4989457E0,5.621586E-1,4.4736543E0,0E0,0E0,0E0,0E0,0E0],"parents":[2147483647,0,0,1,1,2,2,3,3],"right_children":[2,4,6,8,-1,-1,-1,-1,-1],"split_conditions":[3.0474033E1,3.7329613E1,-1.0697398E0,5.2801514E1,2.4436024E-1,2.5839922E-1,3.739662E-2,-9.066203E-4,2.9832172E-1],"split_indices":[921,1076,0,2239,0,0,0,0,0],"split_type":[0,0,0,0,0,0,0,0,0],"sum_hessian":[2.789E3,2.786E3,3E0,2.784E3,2E0,2E0,1E0,2.783E3,1E0],"tree_param":{"num_deleted":"0","num_feature":"2677","num_nodes":"9","size_leaf_vector":"1"}},{"base_weights":[-1.9394352E-4,8.767259E-4,-2.986291E-1,2.3924029E-3,-1.0550115E0,6.9120707E-4,-2.9598236E-1,-2.5280973E-1,-4.2790033E-2],"categories":[],"categories_nodes":[],"categories_segments":[],"categories_sizes":[],"default_left":[0,0,0,0,0,0,0,0,0],"id":73,"left_children":[1,3,-1,5,7,-1,-1,-1,-1],"loss_changes":[4.4610057E0,4.465999E0,0E0,4.397597E0,4.3280888E-1,0E0,0E0,0E0,0E0],"parents":[2147483647,0,0,1,1,3,3,4,4],"right_children":[2,4,-1,6,8,-1,-1,-1,-1],"split_conditions":[5.2801514E1,3.0474033E1,-2.986291E-1,5.2801514E1,-3.7978995E-1,6.9120707E-4,-2.9598236E-1,-2.5280973E-1,-4.2790033E-2],"split_indices":[1504,1625,0,568,1,0,0,0,0],"split_type":[0,0,0,0,0,0,0,0,0],"sum_hessian":[2.789E3,2.788E3,1E0,2.785E3,3E0,2.784E3,1E0,2E0,1E0],"tree_param":{"num_deleted":"0","num_feature":"2677","num_nodes":"9","size_leaf_vector":"1"}},{"base_weights":[-4.7335643E-4,-1.9779687E-3,2.0959674E-1,-5.676764E-3,4.2408237E-1,-9.2113344E-4,-2.9651165E-1,9.321191E-2,-5.4139327E-2],"categories":[],"categories_nodes":[],"categories_segments":[],"categories_sizes":[],"default_left":[0,0,0,0,0,0,0,0,0],"id":74,"left_children":[1,3,-1,5,7,-1,-1,-1,-1],"loss_changes":[4.4033575E0,4.3944683E0,0E0,4.365495E0,8.26118E-1,0E0,0E0,0E0,0E0],"parents":[2147483647,0,0,1,1,3,3,4,4],"right_children":[2,4,-1,6,8,-1,-1,-1,-1],"split_conditions":[3.0474033E1,3.764845E0,2.0959674E-1,5.2801514E1,3.0474033E1,-9.2113344E-4,-2.9651165E-1,9.321191E-2,-5.4139327E-2],"split_indices":[2162,1,0,1384,39,0,0,0,0],"split_type":[0,0,0,0,0,0,0,0,0],"sum_hessian":[2.789E3,2.786E3,3E0,2.763E3,2.3E1,2.762E3,1E0,2.2E1,1E0],"tree_param":{"num_deleted":"0","num_feature":"2677","num_nodes":"9","size_leaf_vector":"1"}},{"base_weights":[-3.9604932E-4,6.6575117E-4,-2.9617578E-1,1.7253908E-3,-2.9536095E-1,6.8024686E-4,-1.8634586E-1],"categories":[],"categories_nodes":[],"categories_segments":[],"categories_sizes":[],"default_left":[0,0,0,0,0,0,0],"id":75,"left_children":[1,3,-1,5,-1,-1,-1],"loss_changes":[4.3868027E0,4.3689685E0,0E0,4.3645043E0,0E0,0E0,0E0],"parents":[2147483647,0,0,1,1,3,3],"right_children":[2,4,-1,6,-1,-1,-1],"split_conditions":[5.2801514E1,5.2801514E1,-2.9617578E-1,2.6386549E1,-2.9536095E-1,6.8024686E-4,-1.8634586E-1],"split_indices":[787,292,0,2630,0,0,0],"split_type":[0,0,0,0,0,0,0],"sum_hessian":[2.789E3,2.788E3,1E0,2.787E3,1E0,2.783E3,4E0],"tree_param":{"num_deleted":"0","num_feature":"2677","num_nodes":"7","size_leaf_vector":"1"}},{"base_weights":[-5.9595826E-4,4.5922308E-4,-2.9434967E-1,1.7484436E-3,-1.1973797E0,1.0502731E-3,-8.774876E-2,-7.36166E-2,-2.8559732E-1],"categories":[],"categories_nodes":[],"categories_segments":[],"categories_sizes":[],"default_left":[0,0,0,0,0,0,0,0,0],"id":76,"left_children":[1,3,-1,5,7,-1,-1,-1,-1],"loss_changes":[4.3316836E0,4.309087E0,0E0,4.3026724E0,4.8107147E-2,0E0,0E0,0E0,0E0],"parents":[2147483647,0,0,1,1,3,3,4,4],"right_children":[2,4,-1,6,8,-1,-1,-1,-1],"split_conditions":[5.2801514E1,3.7329613E1,-2.9434967E-1,1.1480833E1,2.9839852E-1,1.0502731E-3,-8.774876E-2,-7.36166E-2,-2.8559732E-1],"split_indices":[828,1168,0,2310,0,0,0,0,0],"split_type":[0,0,0,0,0,0,0,0,0],"sum_hessian":[2.789E3,2.788E3,1E0,2.786E3,2E0,2.765E3,2.1E1,1E0,1E0],"tree_param":{"num_deleted":"0","num_feature":"2677","num_nodes":"9","size_leaf_vector":"1"}},{"base_weights":[-7.4263575E-4,-2.2281532E-3,2.0689546E-1,-3.2790434E-3,2.9255524E-1,-1.020353E-3,1.6841978E-1],"categories":[],"categories_nodes":[],"categories_segments":[],"categories_sizes":[],"default_left":[0,0,0,0,0,0,0],"id":77,"left_children":[1,3,-1,5,-1,-1,-1],"loss_changes":[4.29287E0,4.2955475E0,0E0,4.2972116E0,0E0,0E0,0E0],"parents":[2147483647,0,0,1,1,3,3],"right_children":[2,4,-1,6,-1,-1,-1],"split_conditions":[3.0474033E1,5.2801514E1,2.0689546E-1,2.359661E1,2.9255524E-1,-1.020353E-3,1.6841978E-1],"split_indices":[474,890,0,1678,0,0,0],"split_type":[0,0,0,0,0,0,0],"sum_hessian":[2.789E3,2.786E3,3E0,2.785E3,1E0,2.78E3,5E0],"tree_param":{"num_deleted":"0","num_feature":"2677","num_nodes":"7","size_leaf_vector":"1"}},{"base_weights":[-3.5501466E-4,6.9252384E-4,-2.9219398E-1,2.1750107E-3,-1.0320327E0,6.4486166E-4,-2.9201183E-1,-2.8304324E-1,1.1751748E-2],"categories":[],"categories_nodes":[],"categories_segments":[],"categories_sizes":[],"default_left":[0,0,0,0,0,0,0,0,0],"id":78,"left_children":[1,3,-1,5,7,-1,-1,-1,-1],"loss_changes":[4.269852E0,4.2722087E0,0E0,4.279319E0,1.7550488E0,0E0,0E0,0E0,0E0],"parents":[2147483647,0,0,1,1,3,3,4,4],"right_children":[2,4,-1,6,8,-1,-1,-1,-1],"split_conditions":[5.2801514E1,3.0474033E1,-2.9219398E-1,5.2801514E1,-1.069758E-1,6.4486166E-4,-2.9201183E-1,-2.8304324E-1,1.1751748E-2],"split_indices":[820,2420,0,1244,0,0,0,0,0],"split_type":[0,0,0,0,0,0,0,0,0],"sum_hessian":[2.789E3,2.788E3,1E0,2.785E3,3E0,2.784E3,1E0,2E0,1E0],"tree_param":{"num_deleted":"0","num_feature":"2677","num_nodes":"9","size_leaf_vector":"1"}},{"base_weights":[-5.9023313E-4,-1.6354916E-3,2.9146358E-1,9.8373985E-6,-9.177567E-1,4.1959487E-4,-1.450194E-1,-2.2629826E-1,-7.962062E-2],"categories":[],"categories_nodes":[],"categories_segments":[],"categories_sizes":[],"default_left":[0,0,0,0,0,0,0,0,0],"id":79,"left_children":[1,3,-1,5,7,-1,-1,-1,-1],"loss_changes":[4.254039E0,4.203927E0,0E0,4.218352E0,1.0488987E-1,0E0,0E0,0E0,0E0],"parents":[2147483647,0,0,1,1,3,3,4,4],"right_children":[2,4,-1,6,8,-1,-1,-1,-1],"split_conditions":[5.2801514E1,2.6386549E1,2.9146358E-1,1.993561E1,1.2104907E0,4.1959487E-4,-1.450194E-1,-2.2629826E-1,-7.962062E-2],"split_indices":[1131,1992,0,1102,0,0,0,0,0],"split_type":[0,0,0,0,0,0,0,0,0],"sum_hessian":[2.789E3,2.788E3,1E0,2.784E3,4E0,2.777E3,7E0,2E0,2E0],"tree_param":{"num_deleted":"0","num_feature":"2677","num_nodes":"9","size_leaf_vector":"1"}},{"base_weights":[-5.292175E-4,5.106941E-4,-2.9008427E-1,1.5483471E-3,-2.8924656E-1,5.1662745E-4,-2.882412E-1],"categories":[],"categories_nodes":[],"categories_segments":[],"categories_sizes":[],"default_left":[0,0,0,0,0,0,0],"id":80,"left_children":[1,3,-1,5,-1,-1,-1],"loss_changes":[4.20739E0,4.189135E0,0E0,4.1660624E0,0E0,0E0,0E0],"parents":[2147483647,0,0,1,1,3,3],"right_children":[2,4,-1,6,-1,-1,-1],"split_conditions":[5.2801514E1,5.2801514E1,-2.9008427E-1,5.2801514E1,-2.8924656E-1,5.1662745E-4,-2.882412E-1],"split_indices":[676,738,0,732,0,0,0],"split_type":[0,0,0,0,0,0,0],"sum_hessian":[2.789E3,2.788E3,1E0,2.787E3,1E0,2.786E3,1E0],"tree_param":{"num_deleted":"0","num_feature":"2677","num_nodes":"7","size_leaf_vector":"1"}},{"base_weights":[-7.3441025E-4,2.979776E-4,-2.880064E-1,2.6092168E-3,-6.422564E-1,7.2881416E-4,-2.87325E-1,-3.7357204E-2,-4.7414896E-1],"categories":[],"categories_nodes":[],"categories_segments":[],"categories_sizes":[],"default_left":[0,0,0,0,0,0,0,0,0],"id":81,"left_children":[1,3,-1,5,7,-1,-1,-1,-1],"loss_changes":[4.1461267E0,4.143611E0,0E0,4.1457596E0,7.4299297E0,0E0,0E0,0E0,0E0],"parents":[2147483647,0,0,1,1,3,3,4,4],"right_children":[2,4,-1,6,8,-1,-1,-1,-1],"split_conditions":[5.2801514E1,1.7575235E1,-2.880064E-1,5.2801514E1,1.0078036E0,7.2881416E-4,-2.87325E-1,-3.7357204E-2,-4.7414896E-1],"split_indices":[1331,2046,0,803,0,0,0,0,0],"split_type":[0,0,0,0,0,0,0,0,0],"sum_hessian":[2.789E3,2.788E3,1E0,2.779E3,9E0,2.778E3,1E0,8E0,1E0],"tree_param":{"num_deleted":"0","num_feature":"2677","num_nodes":"9","size_leaf_vector":"1"}},{"base_weights":[-9.766077E-4,-2.4412207E-3,2.0394735E-1,-3.9025813E-3,2.0305519E-1,-9.873252E-4,2.8738442E-1],"categories":[],"categories_nodes":[],"categories_segments":[],"categories_sizes":[],"default_left":[0,0,0,0,0,0,0],"id":82,"left_children":[1,3,-1,5,-1,-1,-1],"loss_changes":[4.1734004E0,4.148933E0,0E0,4.1549115E0,0E0,0E0,0E0],"parents":[2147483647,0,0,1,1,3,3],"right_children":[2,4,-1,6,-1,-1,-1],"split_conditions":[3.0474033E1,3.0474033E1,2.0394735E-1,5.2801514E1,2.0305519E-1,-9.873252E-4,2.8738442E-1],"split_indices":[1095,18,0,1502,0,0,0],"split_type":[0,0,0,0,0,0,0],"sum_hessian":[2.789E3,2.786E3,3E0,2.783E3,3E0,2.782E3,1E0],"tree_param":{"num_deleted":"0","num_feature":"2677","num_nodes":"7","size_leaf_vector":"1"}},{"base_weights":[-5.3219916E-4,5.0204026E-4,-2.885026E-1,1.5279601E-3,-2.8597623E-1,5.569345E-4,-2.3320968E-1],"categories":[],"categories_nodes":[],"categories_segments":[],"categories_sizes":[],"default_left":[0,0,0,0,0,0,0],"id":83,"left_children":[1,3,-1,5,-1,-1,-1],"loss_changes":[4.1616E0,4.094926E0,0E0,4.0941014E0,0E0,0E0,0E0],"parents":[2147483647,0,0,1,1,3,3],"right_children":[2,4,-1,6,-1,-1,-1],"split_conditions":[5.2801514E1,5.2801514E1,-2.885026E-1,3.7329613E1,-2.8597623E-1,5.569345E-4,-2.3320968E-1],"split_indices":[264,2183,0,1385,0,0,0],"split_type":[0,0,0,0,0,0,0],"sum_hessian":[2.789E3,2.788E3,1E0,2.787E3,1E0,2.785E3,2E0],"tree_param":{"num_deleted":"0","num_feature":"2677","num_nodes":"7","size_leaf_vector":"1"}},{"base_weights":[-7.1506464E-4,3.1216163E-4,-2.8656492E-1,-7.1357004E-4,2.8600523E-1,-3.4766627E-4,2.855296E-1],"categories":[],"categories_nodes":[],"categories_segments":[],"categories_sizes":[],"default_left":[0,0,0,0,0,0,0],"id":84,"left_children":[1,3,-1,5,-1,-1,-1],"loss_changes":[4.104818E0,4.091097E0,0E0,4.08336E0,0E0,0E0,0E0],"parents":[2147483647,0,0,1,1,3,3],"right_children":[2,4,-1,6,-1,-1,-1],"split_conditions":[5.2801514E1,5.2801514E1,-2.8656492E-1,5.2801514E1,2.8600523E-1,-3.4766627E-4,2.855296E-1],"split_indices":[1186,1595,0,895,0,0,0],"split_type":[0,0,0,0,0,0,0],"sum_hessian":[2.789E3,2.788E3,1E0,2.787E3,1E0,2.786E3,1E0],"tree_param":{"num_deleted":"0","num_feature":"2677","num_nodes":"7","size_leaf_vector":"1"}},{"base_weights":[-4.7044072E-4,-3.279569E-3,5.1943696E-1,-5.4721553E-3,6.714269E-1,6.419228E-1,-1.195364E-1,-1.6605618E-3,1.0292014E-1,-8.330031E-2,2.569616E-1,2.2147162E-1,5.2061547E-2],"categories":[],"categories_nodes":[],"categories_segments":[],"categories_sizes":[],"default_left":[0,0,0,0,0,0,0,0,0,0,0,0,0],"id":85,"left_children":[1,3,5,7,9,11,-1,-1,-1,-1,-1,-1,-1],"loss_changes":[4.0764613E0,4.110355E0,2.4361334E0,4.0791736E0,6.5409575E0,2.1983867E0,0E0,0E0,0E0,0E0,0E0,0E0,0E0],"parents":[2147483647,0,0,1,1,2,2,3,3,4,4,5,5],"right_children":[2,4,6,8,10,12,-1,-1,-1,-1,-1,-1,-1],"split_conditions":[1.4078859E1,1.8644705E1,3.7329613E1,1.4078859E1,-5.6304008E-2,1.0803911E-2,-1.195364E-1,-1.6605618E-3,1.0292014E-1,-8.330031E-2,2.569616E-1,2.2147162E-1,5.2061547E-2],"split_indices":[1969,2579,593,2437,0,1,0,0,0,0,0,0,0],"split_type":[0,0,0,0,0,0,0,0,0,0,0,0,0],"sum_hessian":[2.789E3,2.775E3,1.4E1,2.767E3,8E0,1.3E1,1E0,2.753E3,1.4E1,3E0,5E0,5E0,8E0],"tree_param":{"num_deleted":"0","num_feature":"2677","num_nodes":"13","size_leaf_vector":"1"}},{"base_weights":[-2.2201435E-4,1.3937772E-3,-9.0049666E-1,2.647762E-3,-2.3255375E-1,-2.0543805E-1,-3.9372254E-2,7.3438475E-4,-2.8475943E-1],"categories":[],"categories_nodes":[],"categories_segments":[],"categories_sizes":[],"default_left":[0,0,0,0,0,0,0,0,0],"id":86,"left_children":[1,3,5,7,-1,-1,-1,-1,-1],"loss_changes":[4.059746E0,4.070198E0,2.4351692E-1,4.0724025E0,0E0,0E0,0E0,0E0,0E0],"parents":[2147483647,0,0,1,1,2,2,3,3],"right_children":[2,4,6,8,-1,-1,-1,-1,-1],"split_conditions":[2.6386549E1,3.7329613E1,1.6670334E1,5.2801514E1,-2.3255375E-1,-2.0543805E-1,-3.9372254E-2,7.3438475E-4,-2.8475943E-1],"split_indices":[1166,450,1957,485,0,0,0,0,0],"split_type":[0,0,0,0,0,0,0,0,0],"sum_hessian":[2.789E3,2.785E3,4E0,2.783E3,2E0,3E0,1E0,2.782E3,1E0],"tree_param":{"num_deleted":"0","num_feature":"2677","num_nodes":"9","size_leaf_vector":"1"}},{"base_weights":[-4.5045523E-4,5.713015E-4,-2.8501302E-1,2.1829975E-3,-8.972576E-1,6.397259E-4,-2.8253365E-1,-8.2883835E-3,-4.3205205E-1],"categories":[],"categories_nodes":[],"categories_segments":[],"categories_sizes":[],"default_left":[0,0,0,0,0,0,0,0,0],"id":87,"left_children":[1,3,-1,5,7,-1,-1,-1,-1],"loss_changes":[4.061965E0,4.037718E0,0E0,4.006475E0,5.3149614E0,0E0,0E0,0E0,0E0],"parents":[2147483647,0,0,1,1,3,3,4,4],"right_children":[2,4,-1,6,8,-1,-1,-1,-1],"split_conditions":[5.2801514E1,2.6386549E1,-2.8501302E-1,5.2801514E1,1.7172086E0,6.397259E-4,-2.8253365E-1,-8.2883835E-3,-4.3205205E-1],"split_indices":[736,140,0,2028,0,0,0,0,0],"split_type":[0,0,0,0,0,0,0,0,0],"sum_hessian":[2.789E3,2.788E3,1E0,2.784E3,4E0,2.783E3,1E0,3E0,1E0],"tree_param":{"num_deleted":"0","num_feature":"2677","num_nodes":"9","size_leaf_vector":"1"}},{"base_weights":[-7.207457E-4,5.1935366E-4,-2.3058923E-1,-1.0774143E-3,1.7789917E-1,-7.523407E-4,1.06059425E-1],"categories":[],"categories_nodes":[],"categories_segments":[],"categories_sizes":[],"default_left":[0,0,0,0,0,0,0],"id":88,"left_children":[1,3,-1,5,-1,-1,-1],"loss_changes":[3.9871573E0,3.958494E0,0E0,3.9729888E0,0E0,0E0,0E0],"parents":[2147483647,0,0,1,1,3,3],"right_children":[2,4,-1,6,-1,-1,-1],"split_conditions":[3.7329613E1,2.6386549E1,-2.3058923E-1,1.4612955E1,1.7789917E-1,-7.523407E-4,1.06059425E-1],"split_indices":[467,1067,0,1290,0,0,0],"split_type":[0,0,0,0,0,0,0],"sum_hessian":[2.789E3,2.787E3,2E0,2.783E3,4E0,2.77E3,1.3E1],"tree_param":{"num_deleted":"0","num_feature":"2677","num_nodes":"7","size_leaf_vector":"1"}},{"base_weights":[-5.584553E-4,4.6391963E-4,-2.8519621E-1,-5.516175E-4,2.8317815E-1,9.1179274E-5,-2.8084928E-1],"categories":[],"categories_nodes":[],"categories_segments":[],"categories_sizes":[],"default_left":[0,0,0,0,0,0,0],"id":89,"left_children":[1,3,-1,5,-1,-1,-1],"loss_changes":[4.066574E0,4.009741E0,0E0,3.9435465E0,0E0,0E0,0E0],"parents":[2147483647,0,0,1,1,3,3],"right_children":[2,4,-1,6,-1,-1,-1],"split_conditions":[5.2801514E1,5.2801514E1,-2.8519621E-1,5.2801514E1,2.8317815E-1,9.1179274E-5,-2.8084928E-1],"split_indices":[504,2062,0,1201,0,0,0],"split_type":[0,0,0,0,0,0,0],"sum_hessian":[2.789E3,2.788E3,1E0,2.787E3,1E0,2.786E3,1E0],"tree_param":{"num_deleted":"0","num_feature":"2677","num_nodes":"7","size_leaf_vector":"1"}},{"base_weights":[-5.4849056E-4,-1.9726413E-3,1.9837312E-1,-7.396986E-4,-2.2917938E-1,5.3233594E-5,-2.8010723E-1],"categories":[],"categories_nodes":[],"categories_segments":[],"categories_sizes":[],"default_left":[0,0,0,0,0,0,0],"id":90,"left_children":[1,3,-1,5,-1,-1,-1],"loss_changes":[3.9451957E0,3.9299178E0,0E0,3.921676E0,0E0,0E0,0E0],"parents":[2147483647,0,0,1,1,3,3],"right_children":[2,4,-1,6,-1,-1,-1],"split_conditions":[3.0474033E1,3.7329613E1,1.9837312E-1,5.2801514E1,-2.2917938E-1,5.3233594E-5,-2.8010723E-1],"split_indices":[558,514,0,2547,0,0,0],"split_type":[0,0,0,0,0,0,0],"sum_hessian":[2.789E3,2.786E3,3E0,2.784E3,2E0,2.783E3,1E0],"tree_param":{"num_deleted":"0","num_feature":"2677","num_nodes":"7","size_leaf_vector":"1"}},{"base_weights":[-5.503842E-4,4.484844E-4,-2.7863953E-1,1.4470317E-3,-2.7835017E-1,4.891988E-4,-2.7826595E-1],"categories":[],"categories_nodes":[],"categories_segments":[],"categories_sizes":[],"default_left":[0,0,0,0,0,0,0],"id":91,"left_children":[1,3,-1,5,-1,-1,-1],"loss_changes":[3.8817146E0,3.8792174E0,0E0,3.8824337E0,0E0,0E0,0E0],"parents":[2147483647,0,0,1,1,3,3],"right_children":[2,4,-1,6,-1,-1,-1],"split_conditions":[5.2801514E1,5.2801514E1,-2.7863953E-1,5.2801514E1,-2.7835017E-1,4.891988E-4,-2.7826595E-1],"split_indices":[766,725,0,1365,0,0,0],"split_type":[0,0,0,0,0,0,0],"sum_hessian":[2.789E3,2.788E3,1E0,2.787E3,1E0,2.786E3,1E0],"tree_param":{"num_deleted":"0","num_feature":"2677","num_nodes":"7","size_leaf_vector":"1"}},{"base_weights":[-7.387151E-4,2.6500897E-4,-2.8001252E-1,1.2624114E-3,-2.780493E-1,4.9631466E-4,-2.2627068E-1],"categories":[],"categories_nodes":[],"categories_segments":[],"categories_sizes":[],"default_left":[0,0,0,0,0,0,0],"id":92,"left_children":[1,3,-1,5,-1,-1,-1],"loss_changes":[3.9190238E0,3.8698173E0,0E0,3.8525949E0,0E0,0E0,0E0],"parents":[2147483647,0,0,1,1,3,3],"right_children":[2,4,-1,6,-1,-1,-1],"split_conditions":[5.2801514E1,5.2801514E1,-2.8001252E-1,3.7329613E1,-2.780493E-1,4.9631466E-4,-2.2627068E-1],"split_indices":[1734,521,0,454,0,0,0],"split_type":[0,0,0,0,0,0,0],"sum_hessian":[2.789E3,2.788E3,1E0,2.787E3,1E0,2.785E3,2E0],"tree_param":{"num_deleted":"0","num_feature":"2677","num_nodes":"7","size_leaf_vector":"1"}},{"base_weights":[-8.7151374E-4,1.244834E-4,-2.7787074E-1,-8.865563E-3,1.6531572E-1,-2.5126224E-3,1.6075864E-1,3.9958272E-2,-4.7647008E-1],"categories":[],"categories_nodes":[],"categories_segments":[],"categories_sizes":[],"default_left":[0,0,0,0,0,0,0,0,0],"id":93,"left_children":[1,3,-1,5,7,-1,-1,-1,-1],"loss_changes":[3.8585317E0,4.1433454E0,0E0,7.9609184E0,1.3123842E1,0E0,0E0,0E0,0E0],"parents":[2147483647,0,0,1,1,3,3,4,4],"right_children":[2,4,-1,6,8,-1,-1,-1,-1],"split_conditions":[5.2801514E1,4.285797E0,-2.7787074E-1,1.4612955E1,1.7172086E0,-2.5126224E-3,1.6075864E-1,3.9958272E-2,-4.7647008E-1],"split_indices":[1381,2655,0,1571,0,0,0,0,0],"split_type":[0,0,0,0,0,0,0,0,0],"sum_hessian":[2.789E3,2.788E3,1E0,2.645E3,1.43E2,2.634E3,1.1E1,1.42E2,1E0],"tree_param":{"num_deleted":"0","num_feature":"2677","num_nodes":"9","size_leaf_vector":"1"}},{"base_weights":[-8.9706265E-4,1.0946567E-4,-2.8081045E-1,1.1008097E-3,-2.7637577E-1,4.1843412E-4,-2.7618217E-1],"categories":[],"categories_nodes":[],"categories_segments":[],"categories_sizes":[],"default_left":[0,0,0,0,0,0,0],"id":94,"left_children":[1,3,-1,5,-1,-1,-1],"loss_changes":[3.9405136E0,3.8225234E0,0E0,3.8226504E0,0E0,0E0,0E0],"parents":[2147483647,0,0,1,1,3,3],"right_children":[2,4,-1,6,-1,-1,-1],"split_conditions":[5.2801514E1,5.2801514E1,-2.8081045E-1,5.2801514E1,-2.7637577E-1,4.1843412E-4,-2.7618217E-1],"split_indices":[1200,455,0,560,0,0,0],"split_type":[0,0,0,0,0,0,0],"sum_hessian":[2.789E3,2.788E3,1E0,2.787E3,1E0,2.786E3,1E0],"tree_param":{"num_deleted":"0","num_feature":"2677","num_nodes":"7","size_leaf_vector":"1"}},{"base_weights":[-1.0155985E-3,-2.2352617E-3,1.1327966E0,-3.4502414E-3,2.253642E-1,3.619938E-2,3.0363962E-1,-1.059647E-3,1.46192E-1],"categories":[],"categories_nodes":[],"categories_segments":[],"categories_sizes":[],"default_left":[0,0,0,0,0,0,0,0,0],"id":95,"left_children":[1,3,5,7,-1,-1,-1,-1,-1],"loss_changes":[3.8607366E0,3.8284109E0,8.2568574E-1,3.7849913E0,0E0,0E0,0E0,0E0,0E0],"parents":[2147483647,0,0,1,1,2,2,3,3],"right_children":[2,4,6,8,-1,-1,-1,-1,-1],"split_conditions":[3.7329613E1,3.7329613E1,-7.150373E-1,2.153679E1,2.253642E-1,3.619938E-2,3.0363962E-1,-1.059647E-3,1.46192E-1],"split_indices":[614,496,0,1089,0,0,0,0,0],"split_type":[0,0,0,0,0,0,0,0,0],"sum_hessian":[2.789E3,2.787E3,2E0,2.785E3,2E0,1E0,1E0,2.779E3,6E0],"tree_param":{"num_deleted":"0","num_feature":"2677","num_nodes":"9","size_leaf_vector":"1"}},{"base_weights":[-5.571687E-4,4.2781542E-4,-2.747678E-1,1.410286E-3,-2.7387E-1,4.7850874E-4,-2.7361423E-1],"categories":[],"categories_nodes":[],"categories_segments":[],"categories_sizes":[],"default_left":[0,0,0,0,0,0,0],"id":96,"left_children":[1,3,-1,5,-1,-1,-1],"loss_changes":[3.7745109E0,3.7552733E0,0E0,3.7536454E0,0E0,0E0,0E0],"parents":[2147483647,0,0,1,1,3,3],"right_children":[2,4,-1,6,-1,-1,-1],"split_conditions":[5.2801514E1,5.2801514E1,-2.747678E-1,5.2801514E1,-2.7387E-1,4.7850874E-4,-2.7361423E-1],"split_indices":[578,27,0,1134,0,0,0],"split_type":[0,0,0,0,0,0,0],"sum_hessian":[2.789E3,2.788E3,1E0,2.787E3,1E0,2.786E3,1E0],"tree_param":{"num_deleted":"0","num_feature":"2677","num_nodes":"7","size_leaf_vector":"1"}},{"base_weights":[-7.4051274E-4,-1.9443278E-3,1.1182518E0,-3.6449747E-3,7.8719646E-1,2.6926318E-1,6.621237E-2,-1.0064046E-3,1.9225292E-1,2.0369652E-1,-3.692341E-2],"categories":[],"categories_nodes":[],"categories_segments":[],"categories_sizes":[],"default_left":[0,0,0,0,0,0,0,0,0,0,0],"id":97,"left_children":[1,3,5,7,9,-1,-1,-1,-1,-1,-1],"loss_changes":[3.760471E0,3.7445045E0,9.287548E-2,3.7295372E0,1.5366309E0,0E0,0E0,0E0,0E0,0E0,0E0],"parents":[2147483647,0,0,1,1,2,2,3,3,4,4],"right_children":[2,4,6,8,10,-1,-1,-1,-1,-1,-1],"split_conditions":[3.7329613E1,2.359661E1,-1.4244424E0,3.0474033E1,4.503957E-2,2.6926318E-1,6.621237E-2,-1.0064046E-3,1.9225292E-1,2.0369652E-1,-3.692341E-2],"split_indices":[172,537,0,2054,0,0,0,0,0,0,0],"split_type":[0,0,0,0,0,0,0,0,0,0,0],"sum_hessian":[2.789E3,2.787E3,2E0,2.782E3,5E0,1E0,1E0,2.779E3,3E0,4E0,1E0],"tree_param":{"num_deleted":"0","num_feature":"2677","num_nodes":"11","size_leaf_vector":"1"}},{"base_weights":[-3.4329848E-4,6.3571095E-4,-2.7308008E-1,1.6147529E-3,-2.7289334E-1,5.627719E-4,-2.2249877E-1],"categories":[],"categories_nodes":[],"categories_segments":[],"categories_sizes":[],"default_left":[0,0,0,0,0,0,0],"id":98,"left_children":[1,3,-1,5,-1,-1,-1],"loss_changes":[3.7294343E0,3.7296813E0,0E0,3.727717E0,0E0,0E0,0E0],"parents":[2147483647,0,0,1,1,3,3],"right_children":[2,4,-1,6,-1,-1,-1],"split_conditions":[5.2801514E1,5.2801514E1,-2.7308008E-1,3.7329613E1,-2.7289334E-1,5.627719E-4,-2.2249877E-1],"split_indices":[1947,2340,0,700,0,0,0],"split_type":[0,0,0,0,0,0,0],"sum_hessian":[2.789E3,2.788E3,1E0,2.787E3,1E0,2.785E3,2E0],"tree_param":{"num_deleted":"0","num_feature":"2677","num_nodes":"7","size_leaf_vector":"1"}},{"base_weights":[-5.49771E-4,8.3189143E-4,-9.6308565E-1,1.8081983E-3,-2.719159E-1,-2.590806E-1,3.386593E-3,5.56973E-4,-2.7182084E-1],"categories":[],"categories_nodes":[],"categories_segments":[],"categories_sizes":[],"default_left":[0,0,0,0,0,0,0,0,0],"id":99,"left_children":[1,3,5,7,-1,-1,-1,-1,-1],"loss_changes":[3.7112215E0,3.7040935E0,1.3246431E0,3.7068183E0,0E0,0E0,0E0,0E0,0E0],"parents":[2147483647,0,0,1,1,2,2,3,3],"right_children":[2,4,6,8,-1,-1,-1,-1,-1],"split_conditions":[3.0474033E1,5.2801514E1,3.0474033E1,5.2801514E1,-2.719159E-1,-2.590806E-1,3.386593E-3,5.56973E-4,-2.7182084E-1],"split_indices":[1028,277,1771,2374,0,0,0,0,0],"split_type":[0,0,0,0,0,0,0,0,0],"sum_hessian":[2.789E3,2.786E3,3E0,2.785E3,1E0,2E0,1E0,2.784E3,1E0],"tree_param":{"num_deleted":"0","num_feature":"2677","num_nodes":"9","size_leaf_vector":"1"}},{"base_weights":[-7.2612456E-4,-3.1146067E-3,5.5246705E-1,-4.6591437E-3,8.5472643E-1,6.586378E-1,1.4408748E-2,-1.2074908E-3,1.903349E-1,2.1270905E-1,7.2199754E-2,1.508402E-1,3.6851373E-2,-1.020012E-2,1.4522743E-2],"categories":[],"categories_nodes":[],"categories_segments":[],"categories_sizes":[],"default_left":[0,0,0,0,0,0,0,0,0,0,0,0,0,0,0],"id":100,"left_children":[1,3,5,7,9,11,13,-1,-1,-1,-1,-1,-1,-1,-1],"loss_changes":[3.6881251E0,3.6860664E0,6.760225E-1,3.6635404E0,1.3155937E-1,3.1436682E-1,1.5124789E-2,0E0,0E0,0E0,0E0,0E0,0E0,0E0,0E0],"parents":[2147483647,0,0,1,1,2,2,3,3,4,4,5,5,6,6],"right_children":[2,4,6,8,10,12,14,-1,-1,-1,-1,-1,-1,-1,-1],"split_conditions":[1.5891679E1,2.6386549E1,4.503957E-2,3.0474033E1,-3.1469098E-1,1.7033772E0,9.0646E-1,-1.2074908E-3,1.903349E-1,2.1270905E-1,7.2199754E-2,1.508402E-1,3.6851373E-2,-1.020012E-2,1.4522743E-2],"split_indices":[1242,1277,0,913,1,1,0,0,0,0,0,0,0,0,0],"split_type":[0,0,0,0,0,0,0,0,0,0,0,0,0,0,0],"sum_hessian":[2.789E3,2.778E3,1.1E1,2.774E3,4E0,9E0,2E0,2.771E3,3E0,2E0,2E0,7E0,2E0,1E0,1E0],"tree_param":{"num_deleted":"0","num_feature":"2677","num_nodes":"15","size_leaf_vector":"1"}},{"base_weights":[-3.4231064E-4,-1.5372057E-3,1.1102276E0,-2.7333144E-3,2.2195232E-1,2.7371007E-1,5.9358217E-2,-3.5212745E-4,-2.7116394E-1],"categories":[],"categories_nodes":[],"categories_segments":[],"categories_sizes":[],"default_left":[0,0,0,0,0,0,0,0,0],"id":101,"left_children":[1,3,5,7,-1,-1,-1,-1,-1],"loss_changes":[3.704077E0,3.7089381E0,2.2421384E-1,3.664313E0,0E0,0E0,0E0,0E0,0E0],"parents":[2147483647,0,0,1,1,2,2,3,3],"right_children":[2,4,6,8,-1,-1,-1,-1,-1],"split_conditions":[3.7329613E1,3.7329613E1,-8.8973194E-1,5.2801514E1,2.2195232E-1,2.7371007E-1,5.9358217E-2,-3.5212745E-4,-2.7116394E-1],"split_indices":[532,1802,1,2265,0,0,0,0,0],"split_type":[0,0,0,0,0,0,0,0,0],"sum_hessian":[2.789E3,2.787E3,2E0,2.785E3,2E0,1E0,1E0,2.784E3,1E0],"tree_param":{"num_deleted":"0","num_feature":"2677","num_nodes":"9","size_leaf_vector":"1"}},{"base_weights":[-1.7162823E-4,1.2002301E-3,-9.55971E-1,2.8800745E-3,-7.7788764E-1,-4.2771655E-1,1.510938E-1,8.503577E-4,-1.9016762E-1,-1.7998795E-1,-1.6762733E-2,-2.6544381E-2,7.1872525E-2],"categories":[],"categories_nodes":[],"categories_segments":[],"categories_sizes":[],"default_left":[0,0,0,0,0,0,0,0,0,0,0,0,0],"id":102,"left_children":[1,3,5,7,9,-1,11,-1,-1,-1,-1,-1,-1],"loss_changes":[3.6594548E0,3.6497169E0,5.5600376E0,3.643534E0,4.328518E-1,0E0,2.2502518E-1,0E0,0E0,0E0,0E0,0E0,0E0],"parents":[2147483647,0,0,1,1,2,2,3,3,4,4,6,6],"right_children":[2,4,6,8,10,-1,12,-1,-1,-1,-1,-1,-1],"split_conditions":[3.0474033E1,2.359661E1,-5.9678656E-1,3.0474033E1,1.5212385E1,-4.2771655E-1,4.5041388E-1,8.503577E-4,-1.9016762E-1,-1.7998795E-1,-1.6762733E-2,-2.6544381E-2,7.1872525E-2],"split_indices":[1974,923,1,1828,1498,0,0,0,0,0,0,0,0],"split_type":[0,0,0,0,0,0,0,0,0,0,0,0,0],"sum_hessian":[2.789E3,2.786E3,3E0,2.781E3,5E0,1E0,2E0,2.778E3,3E0,4E0,1E0,1E0,1E0],"tree_param":{"num_deleted":"0","num_feature":"2677","num_nodes":"13","size_leaf_vector":"1"}},{"base_weights":[-4.1305207E-4,-1.5955546E-3,2.1973275E-1,-3.123628E-3,8.4955484E-1,-4.316391E-4,-2.6899225E-1,4.833546E-2,1.8822098E-1],"categories":[],"categories_nodes":[],"categories_segments":[],"categories_sizes":[],"default_left":[0,0,0,0,0,0,0,0,0],"id":103,"left_children":[1,3,-1,5,7,-1,-1,-1,-1],"loss_changes":[3.627807E0,3.628783E0,0E0,3.6036398E0,5.0812483E-2,0E0,0E0,0E0,0E0],"parents":[2147483647,0,0,1,1,3,3,4,4],"right_children":[2,4,-1,6,8,-1,-1,-1,-1],"split_conditions":[3.7329613E1,2.6386549E1,2.1973275E-1,5.2801514E1,-5.360275E-1,-4.316391E-4,-2.6899225E-1,4.833546E-2,1.8822098E-1],"split_indices":[621,1481,0,1107,1,0,0,0,0],"split_type":[0,0,0,0,0,0,0,0,0],"sum_hessian":[2.789E3,2.787E3,2E0,2.783E3,4E0,2.782E3,1E0,1E0,3E0],"tree_param":{"num_deleted":"0","num_feature":"2677","num_nodes":"9","size_leaf_vector":"1"}},{"base_weights":[-2.6391656E-4,6.988326E-4,-2.6853713E-1,2.0620846E-3,-9.489808E-1,6.053948E-4,-2.685154E-1,-2.1947555E-1,-5.037899E-2],"categories":[],"categories_nodes":[],"categories_segments":[],"categories_sizes":[],"default_left":[0,0,0,0,0,0,0,0,0],"id":104,"left_children":[1,3,-1,5,7,-1,-1,-1,-1],"loss_changes":[3.6067777E0,3.6127427E0,0E0,3.6186972E0,1.3735771E-1,0E0,0E0,0E0,0E0],"parents":[2147483647,0,0,1,1,3,3,4,4],"right_children":[2,4,-1,6,8,-1,-1,-1,-1],"split_conditions":[5.2801514E1,3.0474033E1,-2.6853713E-1,5.2801514E1,5.2801514E1,6.053948E-4,-2.685154E-1,-2.1947555E-1,-5.037899E-2],"split_indices":[1504,1585,0,1960,852,0,0,0,0],"split_type":[0,0,0,0,0,0,0,0,0],"sum_hessian":[2.789E3,2.788E3,1E0,2.785E3,3E0,2.784E3,1E0,2E0,1E0],"tree_param":{"num_deleted":"0","num_feature":"2677","num_nodes":"9","size_leaf_vector":"1"}},{"base_weights":[-4.994922E-4,1.0185163E-3,-8.4623396E-1,2.5371052E-3,-8.44128E-1,-2.3771064E-1,-4.4367347E-2,-2.5647198E-5,1.23559475E-1,-2.8324214E-1,-6.941094E-2],"categories":[],"categories_nodes":[],"categories_segments":[],"categories_sizes":[],"default_left":[0,0,0,0,0,0,0,0,0,0,0],"id":105,"left_children":[1,3,5,7,9,-1,-1,-1,-1,-1,-1],"loss_changes":[3.5827534E0,3.5777779E0,8.050511E-1,4.5622215E0,9.303329E-1,0E0,0E0,0E0,0E0,0E0,0E0],"parents":[2147483647,0,0,1,1,2,2,3,3,4,4],"right_children":[2,4,6,8,10,-1,-1,-1,-1,-1,-1],"split_conditions":[2.6386549E1,2.6386549E1,-4.4488892E-1,1.5212385E1,-8.354828E-1,-2.3771064E-1,-4.4367347E-2,-2.5647198E-5,1.23559475E-1,-2.8324214E-1,-6.941094E-2],"split_indices":[1628,271,1,2295,1,0,0,0,0,0,0],"split_type":[0,0,0,0,0,0,0,0,0,0,0],"sum_hessian":[2.789E3,2.785E3,4E0,2.781E3,4E0,2E0,2E0,2.77E3,1.1E1,1E0,3E0],"tree_param":{"num_deleted":"0","num_feature":"2677","num_nodes":"11","size_leaf_vector":"1"}},{"base_weights":[-5.835417E-4,-1.9393147E-3,1.8883944E-1,-9.809872E-4,-2.67184E-1,-4.683517E-6,-2.6678124E-1],"categories":[],"categories_nodes":[],"categories_segments":[],"categories_sizes":[],"default_left":[0,0,0,0,0,0,0],"id":106,"left_children":[1,3,-1,5,-1,-1,-1],"loss_changes":[3.5755649E0,3.561563E0,0E0,3.5559318E0,0E0,0E0,0E0],"parents":[2147483647,0,0,1,1,3,3],"right_children":[2,4,-1,6,-1,-1,-1],"split_conditions":[3.0474033E1,5.2801514E1,1.8883944E-1,5.2801514E1,-2.67184E-1,-4.683517E-6,-2.6678124E-1],"split_indices":[478,841,0,1384,0,0,0],"split_type":[0,0,0,0,0,0,0],"sum_hessian":[2.789E3,2.786E3,3E0,2.785E3,1E0,2.784E3,1E0],"tree_param":{"num_deleted":"0","num_feature":"2677","num_nodes":"7","size_leaf_vector":"1"}},{"base_weights":[-5.9127674E-4,3.6650192E-4,-2.671836E-1,1.5385073E-3,-2.1770974E-1,4.989193E-4,-2.6621255E-1],"categories":[],"categories_nodes":[],"categories_segments":[],"categories_sizes":[],"default_left":[0,0,0,0,0,0,0],"id":107,"left_children":[1,3,-1,5,-1,-1,-1],"loss_changes":[3.5687528E0,3.5610368E0,0E0,3.5541968E0,0E0,0E0,0E0],"parents":[2147483647,0,0,1,1,3,3],"right_children":[2,4,-1,6,-1,-1,-1],"split_conditions":[5.2801514E1,3.7329613E1,-2.671836E-1,5.2801514E1,-2.1770974E-1,4.989193E-4,-2.6621255E-1],"split_indices":[557,2234,0,568,0,0,0],"split_type":[0,0,0,0,0,0,0],"sum_hessian":[2.789E3,2.788E3,1E0,2.786E3,2E0,2.785E3,1E0],"tree_param":{"num_deleted":"0","num_feature":"2677","num_nodes":"7","size_leaf_vector":"1"}},{"base_weights":[-7.427349E-4,-1.9138482E-3,2.175719E-1,-9.584509E-4,-2.6646063E-1,-2.7327439E-2,1.7035125E-3],"categories":[],"categories_nodes":[],"categories_segments":[],"categories_sizes":[],"default_left":[0,0,0,0,0,0,0],"id":108,"left_children":[1,3,-1,5,-1,-1,-1],"loss_changes":[3.5589874E0,3.542411E0,0E0,3.5843918E0,0E0,0E0,0E0],"parents":[2147483647,0,0,1,1,3,3],"right_children":[2,4,-1,6,-1,-1,-1],"split_conditions":[3.7329613E1,5.2801514E1,2.175719E-1,-8.615224E-1,-2.6646063E-1,-2.7327439E-2,1.7035125E-3],"split_indices":[950,787,0,1,0,0,0],"split_type":[0,0,0,0,0,0,0],"sum_hessian":[2.789E3,2.787E3,2E0,2.786E3,1E0,1.81E2,2.605E3],"tree_param":{"num_deleted":"0","num_feature":"2677","num_nodes":"7","size_leaf_vector":"1"}},{"base_weights":[-6.2065636E-4,-1.5783105E-3,2.6702768E-1,-6.251547E-4,-2.6589766E-1,6.5510685E-5,-2.655823E-1],"categories":[],"categories_nodes":[],"categories_segments":[],"categories_sizes":[],"default_left":[0,0,0,0,0,0,0],"id":109,"left_children":[1,3,-1,5,-1,-1,-1],"loss_changes":[3.5710614E0,3.52922E0,0E0,3.5259066E0,0E0,0E0,0E0],"parents":[2147483647,0,0,1,1,3,3],"right_children":[2,4,-1,6,-1,-1,-1],"split_conditions":[5.2801514E1,5.2801514E1,2.6702768E-1,5.2801514E1,-2.6589766E-1,6.5510685E-5,-2.655823E-1],"split_indices":[2239,292,0,147,0,0,0],"split_type":[0,0,0,0,0,0,0],"sum_hessian":[2.789E3,2.788E3,1E0,2.787E3,1E0,2.786E3,1E0],"tree_param":{"num_deleted":"0","num_feature":"2677","num_nodes":"7","size_leaf_vector":"1"}},{"base_weights":[-5.9075304E-4,-1.5420236E-3,2.652503E-1,-5.924736E-4,-2.6488876E-1,-4.9772987E-4,1.3172793E-1],"categories":[],"categories_nodes":[],"categories_segments":[],"categories_sizes":[],"default_left":[0,0,0,0,0,0,0],"id":110,"left_children":[1,3,-1,5,-1,-1,-1],"loss_changes":[3.5235443E0,3.5026498E0,0E0,3.4866948E0,0E0,0E0,0E0],"parents":[2147483647,0,0,1,1,3,3],"right_children":[2,4,-1,6,-1,-1,-1],"split_conditions":[5.2801514E1,5.2801514E1,2.652503E-1,1.993561E1,-2.6488876E-1,-4.9772987E-4,1.3172793E-1],"split_indices":[1131,828,0,245,0,0,0],"split_type":[0,0,0,0,0,0,0],"sum_hessian":[2.789E3,2.788E3,1E0,2.787E3,1E0,2.78E3,7E0],"tree_param":{"num_deleted":"0","num_feature":"2677","num_nodes":"7","size_leaf_vector":"1"}},{"base_weights":[-4.253473E-4,7.324704E-4,-2.1525644E-1,1.6767147E-3,-2.6308766E-1,5.2421907E-4,-2.6293668E-1],"categories":[],"categories_nodes":[],"categories_segments":[],"categories_sizes":[],"default_left":[0,0,0,0,0,0,0],"id":111,"left_children":[1,3,-1,5,-1,-1,-1],"loss_changes":[3.4761412E0,3.4670951E0,0E0,3.4680898E0,0E0,0E0,0E0],"parents":[2147483647,0,0,1,1,3,3],"right_children":[2,4,-1,6,-1,-1,-1],"split_conditions":[3.7329613E1,5.2801514E1,-2.1525644E-1,5.2801514E1,-2.6308766E-1,5.2421907E-4,-2.6293668E-1],"split_indices":[1389,523,0,820,0,0,0],"split_type":[0,0,0,0,0,0,0],"sum_hessian":[2.789E3,2.787E3,2E0,2.786E3,1E0,2.785E3,1E0],"tree_param":{"num_deleted":"0","num_feature":"2677","num_nodes":"7","size_leaf_vector":"1"}},{"base_weights":[-6.0608325E-4,5.529023E-4,-1.077488E0,1.4961398E-3,-2.62825E-1,-2.5701466E-1,-6.623173E-2,5.659386E-4,-1.8540616E-1],"categories":[],"categories_nodes":[],"categories_segments":[],"categories_sizes":[],"default_left":[0,0,0,0,0,0,0,0,0],"id":112,"left_children":[1,3,5,7,-1,-1,-1,-1,-1],"loss_changes":[3.482768E0,3.4592354E0,3.921795E-2,3.4535978E0,0E0,0E0,0E0,0E0,0E0],"parents":[2147483647,0,0,1,1,2,2,3,3],"right_children":[2,4,6,8,-1,-1,-1,-1,-1],"split_conditions":[3.7329613E1,5.2801514E1,-7.9208344E-1,3.0474033E1,-2.62825E-1,-2.5701466E-1,-6.623173E-2,5.659386E-4,-1.8540616E-1],"split_indices":[1168,1244,1,1797,0,0,0,0,0],"split_type":[0,0,0,0,0,0,0,0,0],"sum_hessian":[2.789E3,2.787E3,2E0,2.786E3,1E0,1E0,1E0,2.783E3,3E0],"tree_param":{"num_deleted":"0","num_feature":"2677","num_nodes":"9","size_leaf_vector":"1"}},{"base_weights":[-7.615958E-4,-1.7054484E-3,2.6316434E-1,-5.522962E-4,-2.1448307E-1,7.800844E-5,-2.625907E-1],"categories":[],